$(document).trigger("register-search-entries", ["", "21", {"circles": [[25, 1,[1163]],[193, 1,[17]],[262, 2,[128,141]],[330, 1,[687]],[1005, 2,[157,413]],[1105, 2,[218,559]],[1077, 4,[638,660,1803,1864]],[1023, 3,[550,880,1768]],[1035, 3,[628,808,1431]],[1610, 1,[1493]],[2186, 1,[1515]],[2103, 1,[-1475]],[2053, 1,[1146]],[2104, 1,[369]],[2923, 1,[221]],[2809, 1,[176]],[2831, 1,[385]],[2885, 2,[494,550]],[3088, 1,[10586]]],
"circleSweep": [[701, 1,[-3191]]],
"circleSweepManip": [[2234, 1,[909]]],
"CircleSweepManip": [[97, 152,[59,310,-311,-331,-341,1,1,1]],[101, 1,[-520]],[326, 1,[1651]],[701, 38,[50,-52,117,131,-147,-156,-165,-173,-180,-187,-224,-235,-246,-258,-270,3175,3186,3199,3221,3232,3259,-3305,-3310,-3326,-3331,-3347,-3352,-3367,-3371,-3385,-3389,-3403,-3407,-3493,-3524,-3555,-3587,-3620]],[1824, 1,[107]],[1321, 4,[191,-604,-2476,2489]],[1830, 1,[89]],[2234, 2,[905,1113]],[2947, 18,[-35,-485,-499,-514,557,568,-599,-613,-617,-627,-632,-656,-660,-669,-673,-683,-697,-704]]],
"circleSweepManipFn": [[2234, 8,[912,916,922,928,932,1116,1126,1131]]],
"circuit": [[410, 1,[162]],[1571, 1,[15698]],[1748, 1,[8065]],[2337, 2,[617,896]],[2324, 1,[545]]],
"circular": [[410, 2,[-118,-153]],[927, 1,[-52]],[1780, 1,[-774]],[2103, 2,[835,-1030]],[2104, 3,[77,273,-550]],[2105, 4,[80,287,-382,-650]]],
"circumstance": [[262, 1,[181]],[1998, 1,[168]],[2173, 1,[168]]],
"circumstances": [[187, 1,[416]],[607, 1,[-917]],[334, 1,[-7742]],[1610, 1,[1034]],[1998, 2,[-1044,-1150]],[2173, 2,[-1044,-1150]],[2268, 1,[-632]],[2254, 2,[80,544]],[3088, 1,[-17720]],[3095, 1,[1054]]],
"circumstances:": [[1997, 1,[1838]],[2172, 1,[1838]]],
"circus": [[311, 1,[-426]]],
"ciso646": [[2126, 1,[32]],[2135, 1,[24]]],
"citizens": [[3, 1,[770]]],
"Civil": [[311, 1,[2729]]],
"cl": [[74, 1,[187]],[327, 1,[369]],[1217, 8,[174,175,403,404,-416,-447,-454,-490]],[1750, 2,[354,359]],[1522, 1,[325]],[1930, 1,[108]],[1931, 2,[130,522]],[1740, 2,[157,254]],[1974, 1,[89]],[1759, 1,[9726]],[2030, 1,[86]],[2009, 1,[96]],[2060, 1,[750]],[2115, 1,[181]],[1573, 2,[359,364]],[2039, 2,[207,1178]],[2193, 1,[95]],[2229, 1,[175]],[1547, 1,[90]],[1535, 1,[159]],[1593, 1,[225]]],
"cl_bool": [[1215, 2,[185,437]]],
"cl_command_queue": [[1215, 2,[183,435]],[1217, 4,[135,145,282,319]]],
"cl_context": [[1215, 6,[141,148,239,283,-369,-371]],[1217, 2,[127,253]]],
"cl_device_id": [[1217, 2,[154,358]]],
"cl_event": [[533, 64,[-64,66,-73,-86,-94,-96,106,113,-145,-155,157,168,-176,185,195,-196,201,216,219,-226,-231,-239,249,-262,-265,-286,291,-308,-331,338,-355,360,-364,-368,377,-380,-384,396,-399,401,406,-413,-416,432,440,443,-450,-457,-461,467,-475,-480,-490,-499,-518,-521,526,-531,-536,-545,-554,-557,565,570]],[326, 1,[-1154]],[1215, 2,[196,448]],[1826, 1,[-1094]],[1931, 1,[658]]],
"cl_int": [[1215, 6,[156,-181,-201,291,433,521]],[1217, 2,[216,578]],[1931, 1,[499]],[2039, 3,[1189,-1644,-1848]]],
"cl_kernel": [[21, 1,[-3066]],[535, 64,[-65,67,-74,-87,-95,-97,107,114,-146,-156,158,169,-177,186,196,-197,202,217,220,-227,-232,-240,250,-263,-266,-287,292,-309,-332,339,-356,361,-365,-369,378,-381,-385,397,-400,402,407,-414,-417,430,438,444,-451,-458,-462,465,-473,-478,-488,-497,-511,-514,519,-524,-529,-538,-547,-550,558,563]],[326, 1,[-1160]],[1217, 4,[-179,-199,-408,-485]],[1826, 1,[-1083]]],
"CL_KERNEL_WORK_GROUP_SIZE": [[1931, 1,[555]],[2039, 1,[1284]]],
"cl_mem": [[537, 64,[-65,67,-74,-87,-95,-97,107,114,-146,-156,158,169,-177,186,196,-197,202,217,220,-227,-232,-240,250,-263,-266,-287,292,-309,-332,339,-356,361,-365,-369,378,-381,-385,397,-400,402,407,-414,-417,430,438,441,-448,-455,-459,462,-470,-475,-485,-494,-508,-511,516,-521,-526,-535,-544,-547,555,560]],[326, 1,[-1166]],[1215, 5,[-99,-112,-127,576,597]],[1303, 3,[-769,-791,-824]],[1826, 1,[-1089]],[1931, 2,[613,625]],[2039, 4,[1214,1226,1238,1250]]],
"CL_MEM_COPY_HOST_PTR": [[2039, 2,[1657,1856]]],
"cl_mem_flags": [[1215, 5,[143,150,241,285,-374]]],
"CL_MEM_READ_ONLY": [[1215, 3,[277,339,-376]],[2039, 2,[1658,1857]]],
"CL_MEM_READ_WRITE": [[1215, 2,[266,328]]],
"CL_MEM_WRITE_ONLY": [[1215, 2,[272,334]]],
"cl_program": [[21, 1,[-3064]],[1217, 7,[-177,-197,-406,-426,-483,-503,-556]]],
"CL_SUCCESS": [[1215, 2,[515,563]],[1217, 1,[-590]],[1931, 3,[501,563,690]],[2039, 3,[1191,1646,1850]]],
"CL_TRUE": [[2039, 2,[-1695,-1886]]],
"cl_uint": [[1215, 2,[193,445]],[1931, 2,[637,662]],[2039, 1,[1262]]],
"claforte": [[1843, 1,[2959]]],
"claim": [[241, 2,[-216,-223]],[242, 1,[-261]],[462, 1,[-41]],[591, 1,[-1937]],[1538, 2,[-462,697]],[2493, 1,[-1249]]],
"CLAIM": [[2408, 1,[-95]]],
"claimed": [[241, 1,[244]]],
"claimes": [[1988, 1,[-3029]]],
"Claiming": [[242, 1,[255]]],
"claims": [[1538, 1,[-83]],[1800, 1,[5901]]],
"clamp": [[198, 1,[723]],[272, 8,[660,673,684,695,1458,1471,1482,1493]],[319, 1,[4918]],[351, 1,[7252]],[1307, 1,[4476]],[1605, 1,[397]],[1864, 2,[-1767,-1996]],[1793, 2,[456,567]],[1831, 1,[2502]],[1797, 1,[1253]],[2157, 1,[423]],[2360, 1,[418]],[2367, 1,[1602]],[1487, 1,[-886]],[2985, 1,[1860]],[2408, 4,[6466,7325,16865,16875]],[3100, 2,[-1890,-2041]]],
"Clamp": [[272, 2,[468,1255]],[269, 2,[396,1385]],[1073, 2,[449,460]]],
"clamp_size": [[406, 7,[1022,1101,1106,1111,1191,1195,1199]],[407, 1,[544]]],
"clamped": [[30, 1,[818]],[141, 1,[-730]],[317, 1,[718]],[319, 1,[1265]],[351, 1,[1199]],[987, 2,[-1634,-2143]],[1101, 2,[-1564,-1573]],[959, 3,[-1749,-1806,-1822]],[677, 1,[676]],[1415, 1,[-860]],[1305, 1,[-2889]],[1333, 6,[-1671,-1800,-1951,-1997,-2176,-2300]],[1307, 1,[-5985]],[1241, 1,[-422]],[813, 13,[1735,1745,-1747,5243,11332,-11347,-11351,11367,-11369,-11374,-11376,28645,-28764]],[1843, 1,[-3297]],[1877, 2,[4437,-4442]],[1797, 1,[-1004]],[2571, 11,[5145,5196,-5211,-12555,-12579,15390,-15398,15405,-15414,-15418,-15430]],[2915, 2,[-534,-545]],[2983, 1,[-854]],[2985, 1,[-2220]]],
"Clamped": [[677, 1,[3314]],[2761, 1,[871]]],
"clamping": [[140, 1,[-253]],[141, 3,[-737,-844,-848]],[272, 2,[653,1451]],[983, 2,[354,362]],[2006, 1,[660]],[2112, 2,[620,-743]]],
"clampPointInBoundingBox": [[272, 4,[475,636,1262,1434]]],
"clamps": [[406, 1,[2173]],[1831, 1,[-1384]]],
"clang": [[40, 1,[140]]],
"clarify": [[18, 1,[-531]],[261, 1,[-24]],[278, 1,[-1845]]],
"clarity": [[87, 1,[-260]],[192, 1,[-1188]],[221, 1,[-357]],[278, 1,[-409]],[2041, 1,[288]],[2271, 1,[108]]],
"Clark": [[200, 11,[534,672,835,910,2114,2412,2421,2566,2571,2647,2657]],[895, 1,[83]],[1189, 2,[518,1483]]],
"clases": [[719, 2,[5406,5514]],[1337, 2,[4352,4452]],[2699, 2,[545,2020]]],
"clash": [[412, 1,[369]],[334, 1,[-1883]],[685, 1,[3827]],[1247, 2,[485,2764]],[1759, 1,[9213]],[3088, 1,[-18954]]],
"Clash": [[1759, 2,[8771,8783]]],
"clashes": [[189, 1,[1169]],[655, 1,[2942]],[1291, 3,[878,911,926]],[1247, 2,[433,471]],[1197, 2,[1654,-1664]],[1918, 1,[321]],[2314, 1,[601]],[2661, 2,[412,-422]]],
"clashing": [[1247, 1,[-477]]],
"clashOption": [[1759, 6,[8309,8338,8420,8435,9693,10272]],[1799, 1,[165]]],
"class": [[57, 1,[4]],[18, 4,[218,231,252,-254]],[64, 2,[34,-111]],[27, 1,[38]],[63, 1,[-11]],[16, 1,[5]],[12, 2,[-16,-69]],[59, 1,[12]],[15, 152,[2,4,14,21,1]],[11, 1,[232]],[9, 1,[30]],[33, 8,[-52,-76,-87,120,134,-140,174,209]],[37, 2,[-461,-467]],[90, 3,[157,161,187]],[77, 1,[16]],[103, 3,[-145,162,236]],[88, 4,[852,872,1002,1010]],[98, 2,[28,41]],[86, 5,[-81,85,111,136,170]],[68, 4,[32,58,129,419]],[24, 4,[426,432,-437,440]],[13, 1,[102]],[76, 10,[4,36,88,654,979,-985,991,-1053,1056,1059]],[93, 2,[308,317]],[74, 1,[-3]],[7, 102,[147,-158,473,-488,1,1]],[2, 6,[176,565,814,925,943,1060]],[94, 1,[358]],[92, 8,[19,262,-264,270,278,285,290,301]],[105, 6,[7,22,34,113,116,163]],[73, 4,[5,25,96,553]],[85, 1,[55]],[104, 9,[15,-64,-71,80,-91,-99,-120,145,-152]],[89, 101,[13,32,48,64,69,74,79,101,128,-146,154,-174,201,216,254,286,302,312,-324,330,-343,-352,406,428,478,569,-645,653,-686,690,-698,716,-721,733,763,776,805,826,855,861,-870,-879,885,-901,907,-928,936,946,-956,963,-987,-1006,1]],[112, 2,[22,43]],[87, 3,[17,94,106]],[97, 13,[40,146,192,230,257,287,307,340,372,397,423,484,528]],[28, 4,[85,104,145,-153]],[40, 2,[-739,-745]],[110, 2,[20,-22]],[106, 1,[-182]],[26, 5,[75,300,315,358,459]],[108, 7,[125,130,150,-151,197,-323,-344]],[100, 3,[-519,-904,1007]],[101, 4,[159,186,533,575]],[30, 3,[156,-157,-198]],[32, 11,[67,79,105,229,235,273,405,684,844,971,1111]],[3, 3,[-486,738,769]],[25, 24,[1263,1714,2725,2746,2759,-2766,2871,2900,2903,3102,3111,3147,-3167,-3181,3190,3342,3348,3351,3402,3408,3412,3603,-3607,3706]],[71, 4,[86,113,119,211]],[99, 10,[18,26,33,113,154,157,-326,498,-520,526]],[118, 8,[-16,32,-38,47,83,-91,115,-136]],[91, 3,[168,323,-324]],[82, 5,[150,160,197,205,233]],[75, 1,[121]],[29, 5,[-247,2162,2181,2218,2301]],[128, 3,[-505,1065,1091]],[21, 11,[1187,2401,2599,2906,2916,3057,3328,3407,3928,3953,-3966]],[129, 1,[28]],[140, 3,[176,183,243]],[144, 1,[28]],[127, 4,[18,238,240,954]],[145, 1,[84]],[151, 3,[21,29,200]],[141, 9,[-46,51,58,66,-155,156,313,328,-606]],[155, 2,[9,-19]],[154, 1,[8]],[150, 5,[25,-60,-77,117,-136]],[160, 1,[-223]],[157, 4,[15,23,238,409]],[161, 3,[250,-310,-513]],[162, 14,[159,209,-222,-271,293,313,-315,-339,375,436,-445,711,-799,-951]],[163, 2,[193,210]],[164, 3,[45,-63,206]],[117, 1,[-15]],[177, 3,[-9,-147,-272]],[119, 2,[-172,181]],[186, 3,[8,-10,-65]],[178, 8,[-8,-196,-211,-388,-399,693,-698,967]],[183, 2,[-194,-237]],[180, 4,[-55,-59,-92,314]],[187, 4,[22,-84,-125,515]],[188, 7,[-18,-23,-49,-175,184,-194,-880]],[209, 5,[105,-112,-151,-247,420]],[139, 5,[8,114,117,119,123]],[217, 1,[116]],[205, 1,[-818]],[198, 1,[476]],[192, 5,[319,483,1487,3155,3194]],[218, 1,[133]],[220, 6,[239,384,467,-488,771,-791]],[224, 1,[24]],[222, 1,[2063]],[199, 3,[80,99,382]],[166, 1,[343]],[236, 1,[64]],[182, 2,[113,116]],[179, 1,[310]],[234, 8,[-168,314,538,-949,1217,1318,-1495,-1741]],[259, 1,[24]],[257, 5,[252,-271,-286,291,-299]],[265, 1,[-153]],[274, 8,[156,-194,203,233,316,-343,352,366]],[276, 1,[-113]],[270, 7,[-61,-142,430,-446,-611,910,-928]],[282, 1,[-147]],[272, 10,[-73,-97,-269,297,712,-730,-1050,1078,1510,-1528]],[261, 8,[182,202,-255,-489,862,997,-1290,-1551]],[286, 2,[8,164]],[219, 1,[45]],[221, 2,[180,219]],[290, 1,[127]],[295, 2,[35,52]],[284, 2,[69,219]],[293, 16,[24,48,-64,87,110,154,161,-169,191,-206,212,-266,355,497,570,-609]],[263, 11,[-102,-308,726,-727,-749,-808,-1182,1781,1906,-2002,2006]],[189, 2,[669,-2039]],[268, 13,[-141,258,-274,-480,597,-615,1112,-1148,1257,1276,-1458,1461,1733]],[291, 3,[30,193,224]],[193, 1,[5]],[278, 46,[-81,-92,-136,-183,-376,-398,406,615,628,633,795,801,-805,810,852,859,881,890,-893,926,957,962,-1163,1537,1554,1811,-1825,-1834,-1940,2012,-2267,-2277,2325,2329,2406,2432,-2438,-2467,2493,2635,-2646,2649,2654,2659,2687,-2697]],[301, 4,[743,777,-792,1034]],[252, 1,[107]],[202, 2,[2390,2793]],[242, 2,[30,34]],[249, 11,[1022,1039,1121,1125,1252,1335,-1342,1362,1929,1939,2046]],[223, 2,[41,671]],[254, 5,[251,453,482,1159,1228]],[267, 2,[-277,282]],[260, 8,[-44,-200,-367,439,486,-522,-548,567]],[246, 5,[27,-86,-108,-185,194]],[277, 2,[281,379]],[258, 2,[281,379]],[313, 2,[-94,232]],[331, 2,[92,94]],[287, 2,[-37,-46]],[315, 1,[61]],[273, 8,[28,537,937,981,1265,1270,1275,1485]],[333, 4,[54,61,68,100]],[262, 5,[537,-764,1112,-1202,1550]],[285, 5,[-33,162,171,-204,360]],[294, 24,[101,117,-378,-444,-509,-611,-713,942,947,-982,1020,-1040,1181,1193,-1198,-1205,1219,-1222,1227,1287,1295,1302,1309,-1469]],[271, 8,[-200,232,1106,-1122,-1501,1533,2473,-2491]],[298, 1,[306]],[300, 1,[294]],[279, 6,[73,76,114,-119,209,231]],[248, 21,[74,-77,102,114,-135,138,-411,453,-554,1431,1448,-1903,2290,-2697,-2825,2839,2853,2872,-2881,2891,-2937]],[264, 3,[25,-203,-1231]],[343, 1,[65]],[292, 10,[41,63,-177,-186,-197,224,231,234,-241,244]],[337, 4,[-50,75,77,197]],[269, 5,[27,-205,516,-1194,1507]],[345, 7,[71,73,75,77,79,85,87]],[339, 2,[-65,79]],[250, 3,[67,75,160]],[357, 4,[-20,54,58,108]],[317, 1,[-920]],[341, 2,[157,159]],[325, 1,[131]],[327, 3,[82,1143,1188]],[335, 6,[-74,76,80,82,84,86]],[367, 1,[171]],[373, 5,[44,46,48,56,117]],[316, 4,[61,89,91,103]],[377, 6,[80,188,191,254,287,408]],[349, 3,[43,67,87]],[312, 6,[-138,-142,-147,-160,163,-167]],[393, 2,[56,58]],[314, 1,[229]],[395, 1,[67]],[362, 1,[47]],[322, 10,[200,202,204,206,213,304,306,308,310,317]],[403, 9,[55,57,59,61,115,119,249,315,317]],[405, 1,[117]],[416, 3,[37,82,-164]],[324, 1,[344]],[399, 3,[110,488,518]],[368, 1,[246]],[379, 3,[123,187,857]],[389, 14,[-58,90,92,115,228,269,367,380,538,551,714,727,891,959]],[318, 5,[71,75,78,117,145]],[371, 6,[86,222,225,356,389,887]],[328, 9,[85,158,160,220,254,276,298,333,355]],[385, 2,[185,224]],[360, 1,[56]],[412, 18,[-57,-76,-78,98,-107,-116,-121,-134,138,182,-247,-328,-388,549,-579,593,-626,-630]],[346, 1,[212]],[378, 1,[161]],[382, 2,[189,191]],[383, 2,[192,439]],[369, 2,[142,145]],[375, 4,[348,352,-377,-395]],[418, 3,[35,-38,-132]],[350, 9,[62,64,123,156,159,188,217,250,285]],[426, 6,[32,-36,52,-59,-68,-150]],[424, 3,[38,50,-300]],[348, 9,[67,-70,88,239,-242,-257,307,310,330]],[396, 4,[60,62,149,166]],[450, 3,[37,51,-95]],[428, 5,[33,-43,-44,-46,-248]],[448, 3,[28,-36,-44]],[434, 3,[39,51,-290]],[422, 15,[53,-58,62,-68,115,121,131,-134,144,-150,172,181,-211,224,-240]],[436, 4,[37,45,59,-308]],[308, 23,[87,197,-198,213,254,279,294,308,371,-454,776,804,871,894,992,1033,2522,2525,2810,2846,3173,3189,3197]],[485, 5,[-40,-62,65,67,-79]],[384, 4,[192,301,309,312]],[376, 3,[116,157,198]],[466, 2,[58,-222]],[387, 17,[-137,182,186,191,196,198,203,222,1071,1075,1078,1082,1085,1089,1141,1144,1296]],[470, 6,[41,-67,-80,84,-121,-170]],[456, 3,[39,51,-289]],[446, 4,[50,58,61,-515]],[319, 1,[-1510]],[474, 2,[-252,-549]],[460, 9,[46,-66,-237,-253,275,284,-314,328,-344]],[472, 14,[-50,-154,253,-261,-291,-293,300,-310,-316,-321,350,-380,394,-410]],[481, 2,[42,-80]],[493, 8,[-59,92,-261,-274,276,-458,-461,-463]],[380, 1,[296]],[476, 5,[43,138,-168,182,-198]],[468, 3,[-36,-82,-110]],[401, 9,[96,190,192,196,224,230,235,1278,1283]],[462, 2,[30,-376]],[366, 1,[140]],[354, 7,[56,58,60,85,190,192,199]],[370, 4,[152,194,197,249]],[409, 2,[202,267]],[547, 4,[39,42,69,-107]],[521, 3,[48,-98,-458]],[555, 3,[35,-46,-246]],[414, 6,[-60,-201,-675,-692,972,-1025]],[320, 8,[207,211,214,296,298,300,338,379]],[517, 8,[-109,-229,231,-279,-322,-685,-688,-690]],[464, 3,[39,51,-263]],[535, 1,[-582]],[527, 4,[-264,-618,-621,-661]],[531, 5,[48,-213,-553,-556,-558]],[342, 1,[1211]],[573, 4,[41,44,-93,-295]],[565, 4,[-265,-618,-621,-623]],[410, 3,[240,249,330]],[577, 5,[-151,153,-385,-388,-390]],[569, 8,[-57,99,-280,-293,295,-515,-518,-520]],[537, 1,[-580]],[529, 5,[-53,-207,-396,-399,-401]],[501, 1,[-924]],[430, 7,[-58,-84,130,968,-998,1012,-1028]],[397, 2,[1847,-2201]],[579, 4,[48,110,211,-219]],[593, 3,[42,112,-237]],[440, 9,[45,75,-99,105,-140,813,-843,857,-1026]],[489, 8,[-40,-65,-93,-289,292,301,-384,-811]],[595, 2,[41,-400]],[533, 1,[-590]],[420, 5,[-812,1026,-1056,1070,-1086]],[505, 5,[-78,-303,-802,-805,-807]],[432, 15,[53,-58,62,-68,117,123,133,-139,147,-150,172,181,-211,224,-240]],[444, 3,[448,547,-1015]],[619, 1,[-136]],[525, 5,[-393,414,-761,-764,-766]],[603, 5,[-89,-314,-709,-712,-714]],[571, 6,[59,-136,-214,-962,-965,-967]],[398, 3,[93,178,180]],[615, 8,[53,-58,-87,-90,-176,-368,-371,-373]],[438, 10,[-62,-71,-76,82,468,1570,-1600,1614,1634,-1647]],[452, 10,[-56,-66,-71,-89,612,-927,1368,-1398,1412,-1428]],[633, 5,[-105,-154,-251,-254,-256]],[605, 6,[-40,-46,53,195,-203,-262]],[631, 5,[-168,170,-220,-223,-225]],[627, 7,[55,62,-232,234,-638,-641,-643]],[621, 7,[70,-229,231,233,-376,-379,-381]],[637, 4,[-176,-307,-310,-312]],[406, 2,[3078,3102]],[617, 8,[53,-58,-89,-92,-171,-370,-373,-375]],[635, 7,[-96,-222,224,226,-464,-467,-469]],[651, 8,[-56,88,-234,-247,249,-379,-382,-384]],[647, 3,[-61,-90,-467]],[454, 9,[-87,297,303,316,624,-636,644,-653,-658]],[653, 5,[39,-128,-282,-285,-287]],[523, 9,[-340,342,-509,-549,-586,-626,-906,-909,-911]],[649, 1,[-565]],[356, 1,[-20]],[543, 6,[-44,-117,-266,-774,-777,-817]],[495, 5,[62,-251,-728,-731,-787]],[599, 6,[-110,-304,-472,-1158,-1161,-1205]],[407, 6,[253,256,259,330,336,385]],[509, 7,[36,44,63,-593,-1516,-1519,-1521]],[611, 6,[64,-68,-200,-215,599,-1274]],[539, 2,[-50,-772]],[567, 6,[-39,-174,-252,-1057,-1060,-1062]],[561, 6,[-48,-280,470,-1096,-1099,-1113]],[392, 2,[115,563]],[497, 2,[-55,-1394]],[487, 7,[-40,-62,-71,-453,456,-477,-1364]],[601, 9,[60,-71,-186,196,198,200,-254,-257,-269]],[519, 6,[-323,325,327,-1398,-1401,-1403]],[587, 4,[-329,-706,-709,-749]],[491, 6,[-40,-63,-73,230,-252,-708]],[607, 9,[-117,-127,-144,-166,241,-557,-955,-958,-960]],[563, 7,[-44,58,-69,-136,-320,-323,-325]],[583, 10,[-162,-165,-236,-240,491,-878,-891,-1199,-1202,-1204]],[388, 1,[2402]],[551, 6,[-68,-178,-395,-1223,-1226,-1274]],[503, 5,[-62,-252,-691,-694,-696]],[557, 7,[39,-43,-798,-894,-1260,-1263,-1416]],[659, 6,[-88,-248,-416,-1062,-1065,-1109]],[402, 1,[859]],[641, 6,[-38,-132,-210,-954,-957,-959]],[639, 6,[99,110,-420,-852,-855,-857]],[442, 5,[484,1047,-1077,1091,-1107]],[609, 6,[-55,72,-169,-227,-230,-232]],[575, 10,[153,171,186,-447,456,493,535,-1329,-1332,-1334]],[513, 8,[-159,167,514,-522,-1005,-2949,-2952,-2992]],[507, 6,[-37,-202,-280,-1640,-1643,-1645]],[499, 5,[64,-172,-322,-325,-327]],[613, 2,[47,-492]],[458, 10,[62,70,-382,-600,-737,814,1623,-1653,1667,-1683]],[344, 5,[125,129,153,163,204]],[643, 3,[281,283,-1036]],[549, 7,[113,-114,-121,126,321,687,-1734]],[597, 8,[45,106,-123,-314,352,-792,-795,-847]],[545, 6,[-38,-117,-195,-965,-968,-970]],[351, 2,[-1470,7831]],[589, 10,[-474,-688,690,692,694,696,698,-1913,-1916,-1918]],[483, 7,[-40,-69,-78,-755,758,-779,-2704]],[553, 8,[87,90,-111,-188,-191,272,338,-497]],[773, 3,[60,-224,-436]],[541, 5,[46,-277,-736,-739,-741]],[559, 4,[-277,-656,-659,-661]],[645, 3,[169,171,-371]],[623, 3,[-75,-418,-1822]],[707, 6,[-76,245,-385,-477,-492,-724]],[779, 4,[-251,-340,-355,-438]],[629, 4,[-57,122,751,-2316]],[326, 113,[77,107,-111,116,155,177,209,228,267,274,380,436,-479,-575,604,612,629,638,646,671,680,693,703,712,729,745,769,776,848,1071,1194,1199,1216,1230,1356,1405,1426,1539,1557,1660,1693,1845,2370,2384,2417,2429,2461,2511,2515,2614,2639,-2672,2675,2744,2846,2854,2867,2879,2887,2894,2901,2917,2924,2931,2938,2957,2972,2982,2990,3014,3033,3040,3052,3062,3084,3100,3108,3120,3128,3135,3143,3175,3182,3190,3200,3208,3232,3241,3250,3284,3291,3298,3306,3314,3328,3338,3345,3352,3359,3367,3373,3470,3491,3572,3585,3592,3598,3604,3612,-3664,3689,3733,3762]],[352, 13,[84,86,88,102,123,127,130,266,268,270,463,605,666]],[787, 4,[-329,-418,-433,-613]],[581, 6,[-40,-1196,-1465,-3176,-3179,-4114]],[340, 2,[-350,1654]],[661, 7,[55,-59,-138,-388,-958,-961,-1035]],[667, 5,[137,-140,293,834,-2048]],[729, 8,[-63,263,-403,-492,-507,-555,-797,-823]],[511, 9,[-97,-248,506,-528,-1159,-1172,-2029,-2032,-2034]],[777, 8,[77,81,-92,-357,-460,-475,-495,-675]],[783, 4,[-288,-377,-392,-599]],[795, 5,[391,-531,-620,-635,-738]],[691, 3,[-873,-1694,-2934]],[789, 4,[-241,-330,-345,-385]],[811, 6,[-62,265,-405,-494,-509,-722]],[711, 6,[-103,-533,-1354,-1466,-1481,-1764]],[749, 4,[-984,-1073,-1088,-1461]],[775, 6,[-100,-285,-391,-406,-421,-629]],[781, 11,[-73,-81,-131,-144,-298,-387,-402,-466,-479,-487,-503]],[807, 9,[-109,284,-424,-513,-528,-594,-755,-798,-824]],[815, 6,[-72,468,-608,-697,-712,-758]],[833, 6,[-64,458,-598,-687,-702,-743]],[663, 5,[-96,-746,-2261,-2264,-2565]],[803, 4,[-986,-1075,-1090,-1602]],[839, 5,[126,-266,-355,-370,-445]],[679, 5,[-539,-1410,-1502,-1517,-2089]],[737, 4,[-999,-1088,-1103,-1574]],[765, 5,[-375,-1246,-1335,-1350,-1487]],[334, 7,[108,112,140,150,328,577,829]],[675, 6,[-1564,-2437,-2444,-2572,-2587,-3171]],[791, 5,[-611,-1482,-1571,-1590,-2429]],[753, 4,[75,-566,-1437,-2108]],[733, 3,[-1455,-2328,-2619]],[731, 5,[210,-430,-522,-537,-824]],[515, 7,[-95,370,-392,-1023,-2646,-2649,-2651]],[785, 4,[-287,-376,-391,-528]],[723, 5,[-1961,-2952,-3087,-3102,-3424]],[709, 4,[-1020,-1112,-1127,-1452]],[855, 13,[-56,71,78,86,107,310,-450,-539,-554,612,644,673,-699]],[741, 3,[-1348,-2221,-3105]],[699, 6,[53,-1118,-2003,-2092,-2107,-3008]],[751, 7,[-43,-73,351,-491,-580,-601,-1200]],[735, 6,[-73,226,-366,-455,-470,-623]],[669, 6,[-75,-193,-385,-1100,-1103,-1151]],[687, 11,[-128,-983,-1099,-1124,-1855,1861,-1863,-1866,2146,4124,-4824]],[655, 10,[76,-103,-120,133,190,-204,-1186,-4782,-4785,-4993]],[400, 3,[2403,9526,10507]],[479, 9,[-267,-1901,-2124,-2497,2505,-3813,-7552,-7555,-7557]],[817, 4,[-892,-981,-996,-1088]],[665, 6,[-92,-228,-450,-1368,-1371,-1422]],[757, 6,[67,-1820,-2725,-2860,-2875,-3055]],[743, 8,[-75,260,-400,-489,-504,-547,-778,-804]],[767, 6,[-65,-386,-1257,-1346,-1361,-1459]],[903, 4,[-211,-300,-315,-376]],[797, 5,[-544,-1415,-1504,-1519,-1975]],[703, 5,[-984,-1855,-1944,-1959,-3272]],[689, 6,[100,-230,-379,-794,-797,-799]],[585, 6,[-372,384,-1291,-3163,-3166,-3238]],[809, 4,[-941,-1047,-1062,-1305]],[671, 3,[2535,2554,-2692]],[799, 5,[-513,-1384,-1473,-1488,-2031]],[857, 9,[-63,249,-389,-478,-493,-564,-733,-783,-816]],[841, 5,[221,-361,-450,-465,-837]],[761, 5,[-2047,-2849,-3009,-3024,-3883]],[727, 5,[-2020,-3011,-3146,-3161,-3659]],[899, 4,[-427,-1076,-1079,-1081]],[907, 5,[219,-439,-528,-543,-866]],[823, 6,[-1470,-2343,-2350,-2478,-2500,-2637]],[919, 9,[-63,240,-380,-469,-484,-526,-699,-749,-775]],[851, 5,[-799,-1670,-1759,-1774,-1935]],[869, 5,[-736,-1607,-1696,-1714,-1986]],[739, 6,[-44,-507,-1328,-1436,-1451,-1850]],[871, 5,[-498,-1358,-1510,-1525,-2114]],[943, 3,[205,207,-434]],[829, 5,[848,-952,-1135,-1150,-3099]],[625, 13,[-334,-338,589,-976,-1183,1788,1807,1880,1958,2442,-3155,-3158,-3302]],[825, 6,[-1715,-2588,-2595,-2723,-2744,-3395]],[657, 3,[67,-93,-2306]],[705, 7,[82,87,188,-408,-497,-517,-931]],[955, 6,[76,-80,197,201,206,-379]],[693, 5,[-825,-1696,-1788,-1803,-2029]],[961, 3,[-40,-61,-261]],[847, 8,[48,-59,-1187,-2060,-2195,-2210,2278,-2419]],[755, 3,[-1407,-2280,-2463]],[973, 1,[-151]],[979, 4,[-130,-232,-235,-237]],[977, 1,[-182]],[793, 5,[-1255,-2128,-2263,-2278,-2625]],[867, 5,[-114,-121,-563,-1395,-2133]],[935, 12,[-70,-282,-286,-288,-290,-298,-306,-317,524,526,528,-947]],[981, 1,[-137]],[965, 4,[-165,-370,-373,-375]],[957, 4,[-237,-1042,-1045,-1047]],[681, 6,[-1798,-2671,-2678,-2806,-2821,-3185]],[951, 8,[120,153,229,-231,235,269,637,-785]],[875, 7,[-54,-2179,-3067,-3220,-3235,3828,-3962]],[983, 6,[83,-177,-318,-436,-439,-496]],[859, 6,[-1801,-2674,-2681,-2809,-2826,-3192]],[921, 9,[-63,256,-396,-485,-500,-546,-735,-787,-812]],[911, 4,[-1090,-1179,-1194,-1616]],[967, 4,[-137,-267,-270,-272]],[725, 5,[-1947,-2938,-3073,-3088,-3392]],[963, 4,[-158,-600,-603,-605]],[947, 5,[-75,-555,-1099,-1102,-1104]],[997, 3,[118,-124,-655]],[953, 1,[-660]],[863, 5,[-1966,-2957,-3092,-3107,-3436]],[713, 5,[-1970,-2961,-3096,-3111,-3478]],[985, 5,[-63,-144,-265,-268,-384]],[745, 5,[-1999,-2801,-3086,-3101,-7222]],[715, 6,[174,-1542,-2344,-2557,-2621,-5991]],[879, 5,[-757,-1578,-1681,-1698,-2553]],[805, 6,[77,-1838,-2711,-2962,-2990,-3327]],[999, 2,[-64,-266]],[873, 5,[-439,-1310,-1399,-1414,-1648]],[1013, 5,[-105,-192,-427,-430,-432]],[1021, 5,[105,-249,-354,-357,-359]],[1005, 1,[-460]],[719, 12,[-828,-1634,-1970,-2062,-2574,-3248,-3262,-3269,-4357,6624,6701,-6736]],[883, 4,[119,-933,-1804,-3325]],[949, 5,[-142,144,-341,-344,-346]],[969, 6,[86,-170,-368,-604,-607,-663]],[915, 3,[-1402,-2275,-2461]],[591, 10,[226,-1554,1556,1558,1560,1562,-1658,-5641,-5644,-5646]],[1029, 5,[96,-212,-323,-326,-328]],[1041, 5,[70,-183,-244,-247,-249]],[971, 5,[-62,-125,-218,-221,-332]],[1001, 5,[-90,-226,-363,-366,-368]],[1053, 6,[-117,-276,278,-540,-543,-545]],[1045, 6,[83,-175,-314,-402,-405,-464]],[1057, 5,[88,-229,-483,-486,-488]],[1047, 5,[-62,-128,-285,-288,-466]],[1003, 6,[-88,90,-170,-388,-391,-393]],[819, 6,[-54,-844,-1665,-1765,-1780,-2920]],[701, 5,[-2021,-3012,-3147,-3162,-3643]],[1043, 1,[-504]],[975, 1,[-805]],[885, 6,[-66,180,-320,-409,-424,-500]],[931, 5,[-638,-1509,-1598,-1613,-2886]],[1059, 3,[282,417,-935]],[887, 6,[-2104,-2906,-2936,-3064,-3079,-4104]],[1033, 6,[137,-158,-809,-1571,-1574,-1576]],[937, 4,[-62,292,294,-736]],[717, 7,[91,99,237,-341,-617,-657,-687]],[1093, 5,[-46,-117,-224,-227,-247]],[1069, 6,[-115,-124,-217,-461,-464,-466]],[913, 5,[191,-411,-500,-515,-756]],[1081, 5,[-115,-263,-713,-716,-718]],[1007, 6,[-164,-417,419,-1219,-1222,-1290]],[849, 5,[-419,-1290,-1379,-1394,-1673]],[927, 3,[-1407,-2280,-2470]],[939, 5,[-61,-148,-648,-651,-653]],[1015, 4,[-96,-105,115,-1350]],[1089, 5,[-44,-106,-190,-193,-249]],[989, 8,[-234,-704,1373,1552,1751,-2381,-2384,-2386]],[843, 5,[49,-1929,-2731,-3378,-3932]],[769, 4,[43,-1183,-2056,-2483]],[987, 6,[-331,-1137,-1258,-2676,-2679,-2719]],[1055, 2,[455,-958]],[1009, 2,[-90,-540]],[1117, 6,[56,59,66,-67,291,-482]],[1011, 4,[-112,-195,-198,-200]],[835, 8,[-781,-3197,-3999,-4179,-4194,-4585,4839,-9803]],[933, 5,[327,329,331,-426,-683]],[1125, 6,[39,-40,-134,-333,-336,-338]],[941, 6,[-62,-146,239,241,243,-442]],[881, 5,[272,-492,-581,-596,-910]],[695, 3,[-2985,-3787,-9565]],[1017, 1,[-963]],[683, 6,[-71,403,-507,-629,-644,-1146]],[1105, 1,[-627]],[1025, 7,[-424,-456,-546,-977,-1812,-1815,-1817]],[673, 3,[-1584,-2457,-3148]],[1095, 4,[-403,-993,-996,-1033]],[1071, 6,[-78,80,-266,-834,-837,-839]],[1091, 5,[-75,-223,-537,-540,-542]],[759, 6,[71,-1776,-2681,-2816,-2831,-2886]],[923, 3,[-1633,-2506,-3348]],[837, 6,[-75,464,-604,-693,-708,-745]],[771, 9,[-63,253,-393,-482,-497,-545,-584,-774,-800]],[909, 3,[-1438,-2311,-2609]],[1019, 1,[-529]],[905, 5,[-2483,-3285,-3452,-3485,-5500]],[1109, 6,[-153,-428,430,-1275,-1278,-1355]],[1097, 3,[-66,-109,-319]],[991, 4,[-674,-1575,-1578,-1580]],[1077, 2,[1921,-1991]],[1119, 9,[-44,-53,81,88,-209,218,-543,-546,-548]],[821, 3,[-1415,-2288,-2483]],[1073, 6,[59,-155,-313,-507,-510,-569]],[1167, 5,[-42,-132,-359,-362,-364]],[801, 6,[-1429,-2302,-2309,-2437,-2461,-3291]],[993, 6,[-241,-913,-2485,-2696,-2699,-2701]],[1171, 4,[-70,127,-131,-512]],[1061, 1,[-2275]],[1023, 7,[340,-982,-1577,-2093,-2096,2278,-2316]],[1027, 5,[70,-178,-254,-257,-259]],[1131, 6,[-92,-162,-306,-809,-812,-852]],[1203, 6,[42,-84,-201,-526,-529,-531]],[1099, 1,[-230]],[1111, 5,[-61,-159,-314,-317,-319]],[929, 5,[-115,127,-814,-1685,-2420]],[845, 5,[-393,-1264,-1353,-1368,-1522]],[1079, 5,[-119,-183,-282,-285,-287]],[1121, 3,[69,239,-323]],[901, 5,[-2001,-2992,-3127,-3142,-3562]],[1223, 5,[-41,-139,-318,-321,-323]],[1147, 7,[78,-81,83,-436,-1375,-1378,-1380]],[1101, 4,[-490,-2079,-2082,-2084]],[959, 5,[52,55,2635,2640,-2678]],[1035, 6,[265,-295,-1056,-2714,-2717,-2719]],[917, 4,[-1465,-1583,-1598,-3432]],[1215, 3,[71,81,-632]],[1075, 5,[-76,-139,-301,-304,-466]],[1063, 6,[-81,-88,92,124,130,-263]],[865, 3,[-1406,-2279,-2529]],[677, 5,[-2363,-3184,-3527,-3542,-8002]],[1103, 1,[-61]],[1123, 8,[43,-67,-183,185,187,-490,-493,-495]],[747, 5,[-2131,-3019,-3179,-3194,-3615]],[1283, 23,[57,68,90,144,154,158,173,180,-196,-210,345,352,359,388,413,-517,559,563,608,612,-652,-655,-740]],[1271, 9,[60,65,71,-90,-230,358,-536,-539,-618]],[1065, 6,[-130,137,-227,-320,-323,-495]],[1139, 4,[-532,-1661,-1664,-1666]],[1299, 9,[50,56,71,-80,-102,-353,-716,-719,-721]],[1211, 6,[-80,85,-263,-713,-716,-718]],[1217, 2,[-81,-704]],[1151, 4,[-445,-1356,-1359,-1361]],[1303, 2,[82,-1045]],[1127, 12,[-98,-107,266,-650,652,696,-2087,-2215,-2221,-2298,-2301,-2303]],[1301, 6,[-84,-90,-228,-497,-500,-502]],[861, 5,[-1957,-2948,-3083,-3098,-3423]],[1173, 2,[-41,-1152]],[1323, 5,[50,-63,-92,179,-362]],[1149, 4,[-313,-639,-642,-644]],[763, 10,[-2244,-3149,-3284,-3299,3419,3485,3698,3751,3809,-5222]],[877, 6,[-52,-2089,-3080,-3215,-3230,-3853]],[1031, 7,[373,1177,-1552,-2909,-3126,-3129,-3873]],[1037, 7,[140,-166,-554,-567,-835,-838,-840]],[721, 6,[-1845,-2718,-2725,-2853,-2868,-3368]],[1049, 4,[241,1894,1931,-3299]],[1327, 2,[-53,-112]],[1039, 5,[86,-251,-422,-425,-427]],[1355, 1,[-101]],[1329, 5,[48,-186,-339,-342,-403]],[1359, 8,[55,62,-87,108,-111,-294,-352,-518]],[1357, 5,[42,45,-52,206,-474]],[1113, 6,[-164,-425,427,-928,-931,-933]],[1279, 11,[149,-707,-808,-883,-896,-929,935,-962,-1207,-1210,-1212]],[1205, 7,[448,481,-595,-1743,1818,-1846,-2265]],[889, 5,[-1955,-2946,-3081,-3096,-3388]],[1213, 6,[-38,-128,-206,-886,-889,-891]],[1129, 6,[-39,49,-60,98,307,-691]],[1183, 7,[128,-132,-377,-634,-1325,-1328,-1407]],[1115, 4,[-214,-315,-318,-320]],[1219, 6,[-97,-768,-846,-1028,-1031,-1033]],[995, 5,[-188,-536,-1212,-1215,-1217]],[1291, 17,[-70,-81,84,142,-205,-209,322,-748,-812,943,-955,1087,1097,1108,-1147,-1152,-1313]],[1343, 9,[57,76,-815,-915,921,-948,1117,1160,-1239]],[1235, 7,[-71,-843,-921,1147,-1494,-1497,-1499]],[1169, 5,[72,-371,-1117,-1120,-1122]],[1179, 5,[-67,-348,-1254,-1257,-1338]],[1133, 6,[-117,-360,-504,-1161,-1164,-1204]],[1067, 1,[-746]],[1199, 57,[-39,42,72,91,99,107,115,127,141,153,164,193,204,217,232,247,-262,275,281,289,306,325,348,369,399,412,480,523,554,568,-571,577,-579,-582,609,623,-626,632,-634,-637,-665,-688,694,-696,-699,-729,738,765,794,-803,827,843,882,898,-917,-920,-922]],[1339, 11,[56,63,-479,-580,-655,-688,694,-721,-1096,-1099,-1213]],[1325, 8,[260,-275,-435,-439,-499,-503,556,-1660]],[1403, 5,[-39,-112,-237,-240,-242]],[1221, 8,[-56,89,-260,-273,275,-510,-513,-515]],[1375, 12,[71,76,145,187,198,-283,-678,744,762,-893,-896,-948]],[1347, 15,[70,77,87,161,212,223,-298,-311,-706,805,-829,900,-996,-999,-1001]],[1395, 2,[89,-394]],[827, 4,[-1955,-2044,-2059,-5053]],[1331, 10,[57,63,-288,353,361,412,420,-857,-860,-941]],[1083, 6,[-300,306,-1067,-2773,-2776,-3638]],[1315, 10,[56,-553,-654,-729,-762,768,-795,-1597,-1600,-1771]],[1407, 4,[-85,-110,-113,-166]],[1255, 7,[58,88,-450,477,-1389,-1392,-1394]],[831, 6,[-2413,-3215,-3373,-3388,4687,-6057]],[1273, 12,[59,65,-256,284,286,369,377,425,433,-646,-649,-773]],[1153, 5,[-76,-475,-1729,-1732,-1734]],[1263, 11,[94,-119,-134,-147,-1193,-1294,-1465,-1498,1504,-1531,-2135]],[1175, 6,[126,-1042,-1120,-2699,-2702,-2704]],[1191, 10,[66,68,72,87,-110,-924,945,-2744,-2747,-2846]],[1231, 6,[-115,-301,-523,-1468,-1471,-1522]],[1281, 6,[91,-97,-291,-659,-662,-664]],[1335, 6,[77,85,94,182,-662,-791]],[1159, 5,[-76,-696,-2404,-2407,-2409]],[1135, 5,[75,77,-90,-107,-562]],[1431, 3,[257,-265,-534]],[1405, 2,[76,-377]],[895, 6,[495,-3008,-3881,-4016,-4031,-8005]],[853, 36,[-252,-270,990,-1017,-2018,-2031,2053,-2404,-2530,-2624,-2637,-2735,-2830,-2877,-2924,-2942,-3122,-3375,-3399,-3549,-3573,-3721,-3874,-3988,4021,-4140,-4226,-4315,-4637,-4715,-4849,-5025,-5216,-5875,-5878,-5880]],[945, 8,[49,203,221,-249,-1732,-8030,-8033,-8157]],[697, 5,[-668,-1539,-1628,-1643,-2621]],[1443, 4,[60,-89,-130,-307]],[1181, 5,[-44,-76,-590,-593,-595]],[1267, 7,[81,388,-1151,1182,-1277,1979,-3054]],[1397, 7,[-53,-106,-109,-193,-351,-354,-356]],[1345, 6,[42,49,57,135,-615,-720]],[1361, 8,[54,-58,-552,-565,944,-1548,-1551,-1553]],[1207, 5,[-68,-386,-946,-949,-951]],[1233, 3,[-60,131,-186]],[1409, 1,[-291]],[1257, 12,[56,63,-68,-478,-579,-654,-687,693,-720,-942,-945,-947]],[1185, 6,[-77,-131,-263,-682,-685,-763]],[891, 9,[-63,260,-400,-489,-504,-552,-736,-788,-813]],[1107, 2,[2162,-3947]],[1285, 18,[57,-150,356,-958,-1059,-1134,-1167,1173,-1200,-2129,2187,-2207,2308,2332,-2480,-3041,-3044,-3046]],[1237, 8,[72,-134,-148,-150,-482,-1079,-1082,-1084]],[1433, 2,[66,-182]],[1447, 7,[70,-71,-76,-87,100,142,-464]],[1383, 11,[48,55,-81,-310,-323,391,429,-909,-912,1128,-1250]],[1415, 7,[36,-42,-48,-345,-1092,-1095,-1097]],[1275, 8,[78,-254,256,258,260,-728,-731,-733]],[1471, 4,[109,247,-254,-365]],[1341, 11,[63,-71,-479,-580,-655,-688,694,-721,-1111,-1114,-1116]],[1349, 10,[88,92,-104,118,129,132,618,-624,-630,-1785]],[1305, 17,[138,-199,207,-898,-999,1082,-1113,-1146,1152,-1179,1856,1861,1943,3000,-3105,-3108,-3110]],[1177, 6,[-48,101,-286,-605,-608,-610]],[1475, 5,[-43,50,102,-110,-226]],[1445, 4,[57,65,-148,-275]],[685, 7,[319,-1796,-2598,-2812,-2827,2897,-4683]],[1399, 7,[-53,-106,-109,-156,-266,-269,-271]],[1137, 6,[-69,71,-313,-882,-885,-887]],[897, 6,[-65,445,-585,-674,-689,-719]],[1193, 6,[-49,-765,-843,-1262,-1265,-1267]],[1187, 6,[68,-94,-167,-322,-325,-327]],[1155, 5,[-70,-476,-1613,-1616,-1618]],[1293, 14,[62,-91,-297,482,-1084,-1185,-1260,-1273,-1306,1312,-1339,-2380,-2383,-2385]],[1209, 7,[62,64,-121,460,462,471,-780]],[1455, 9,[44,51,57,62,147,158,-256,-667,-669]],[1411, 4,[-201,271,273,-417]],[1239, 4,[-181,-262,-265,-267]],[1499, 6,[77,84,-189,-294,-297,-299]],[1161, 5,[-443,-487,-1010,-1013,-1015]],[1351, 1,[-100]],[1317, 12,[159,-185,201,-780,-881,-956,-989,995,-1022,-2089,-2092,-2094]],[1417, 6,[-82,-247,249,-601,-604,-606]],[893, 6,[-62,215,-355,-444,-459,-583]],[1333, 11,[79,-115,-148,330,-1016,-1117,-1441,1447,-1474,-2097,-2739]],[1423, 6,[-157,-175,-894,-2766,-2769,-2771]],[1449, 1,[-267]],[1141, 5,[304,-873,-3030,-3033,-3035]],[1463, 9,[-44,-49,-69,-557,559,-705,-1411,-1414,-1416]],[1387, 4,[-53,118,626,-2139]],[1277, 14,[165,167,212,260,270,505,529,626,671,705,739,761,-770,-860]],[1201, 7,[-69,-1023,-1101,-2519,-2638,-2641,-2643]],[1459, 7,[44,52,58,65,-272,-683,-707]],[1503, 7,[-89,-228,-240,-518,-533,-536,-538]],[1385, 20,[-84,-662,681,-757,-793,-905,-1457,-1474,-1516,-1535,1539,1584,1613,-1629,1642,-1651,-1658,-1854,-1857,-1859]],[1085, 6,[-300,-311,-806,-2558,-2561,-2563]],[1526, 1,[157]],[1051, 7,[-1064,1150,-1195,2433,-3359,-3362,-3435]],[1491, 7,[-59,-173,-324,326,-865,-868,-908]],[1195, 2,[64,-175]],[1247, 21,[84,91,-130,199,506,529,540,-1311,-1884,-1972,-2005,2011,-2038,2234,-3425,4170,4291,-4353,-4356,-4463,-5869]],[1363, 12,[91,-107,-660,-761,-836,-849,-882,888,-915,-1172,-1175,-1177]],[1353, 1,[-79]],[1367, 15,[206,212,-229,-250,-1378,-1479,-1554,-1587,1593,-1620,3463,3481,-4092,-4095,-4097]],[1307, 17,[198,-259,278,-306,-1359,-1460,1543,-1553,-1586,1592,-1619,4210,5971,6096,-6162,-6165,-6167]],[1477, 6,[-44,-693,-783,-944,-947,-1085]],[1265, 12,[76,-87,91,-578,-679,-754,-787,793,-820,-1185,-1188,-1595]],[1558, 1,[190]],[1457, 6,[51,53,55,61,-230,-295]],[1163, 5,[-42,-159,-470,-473,-475]],[1401, 7,[-42,-240,242,244,-684,-687,-689]],[1189, 6,[74,-497,499,-1534,-1537,-1539]],[1259, 15,[66,-100,-115,237,-772,-873,-948,-961,-994,1000,-1027,1249,-1284,-1287,-1289]],[1566, 1,[115]],[1551, 1,[46]],[1483, 5,[-98,-1224,-3077,-3080,-3082]],[1546, 1,[173]],[1578, 1,[49]],[1570, 1,[55]],[925, 6,[-2137,-2939,-3009,-3137,-3152,-4099]],[1465, 6,[-49,-88,-157,-265,-268,-270]],[1143, 4,[-250,-554,-557,-559]],[1287, 11,[55,-97,-578,-679,-754,-787,793,-820,-1700,-1703,-1705]],[1269, 11,[166,171,182,288,-702,775,777,779,-2805,-2808,-2862]],[1519, 2,[51,53]],[1249, 7,[43,51,-57,-151,-277,-280,-282]],[1295, 7,[-53,99,238,-630,722,-731,-885]],[1538, 2,[388,391]],[1501, 6,[-40,-195,-273,-1155,-1158,-1160]],[1165, 5,[-42,-136,-364,-367,-369]],[1241, 10,[41,-68,-99,-107,-119,-294,-304,-954,-957,-959]],[1532, 1,[59]],[1467, 8,[60,-98,-105,-126,-210,-228,-231,-233]],[1559, 4,[60,588,591,625]],[1251, 4,[42,-70,118,-206]],[1473, 8,[69,326,-347,-611,861,-1700,-1703,-1745]],[1595, 1,[108]],[1435, 9,[51,-438,1697,-1709,-1717,1917,-1950,-1974,-2770]],[1469, 5,[62,-135,-316,-319,-321]],[1365, 14,[55,-70,92,-112,118,-558,-659,-734,-767,773,-800,-1088,-1091,-1093]],[1087, 5,[149,-540,-1689,-1692,-1694]],[1726, 1,[54]],[1425, 1,[-907]],[1493, 6,[-74,-333,-411,-1960,-1963,-1965]],[1735, 1,[86]],[1419, 6,[-76,-925,-1065,-2482,-2485,-2579]],[1437, 2,[-53,-689]],[1596, 1,[213]],[1723, 1,[183]],[1727, 1,[96]],[1736, 2,[163,-242]],[1243, 13,[-90,96,99,-119,275,279,-1553,1652,-2780,-3443,-5487,-5490,-5495]],[1560, 1,[261]],[1758, 2,[19,21]],[1439, 10,[50,473,476,485,490,-502,-518,-562,-1624,-5836]],[1742, 1,[81]],[1245, 4,[78,-107,-445,-447]],[1751, 1,[52]],[1724, 3,[148,210,534]],[1225, 6,[-2645,-6259,-7889,-9582,-9585,-9587]],[1597, 1,[243]],[1766, 4,[71,183,185,187]],[1561, 1,[118]],[1567, 1,[178]],[1610, 3,[454,838,866]],[1451, 11,[-104,-117,140,143,-148,475,-484,-713,-1547,-1550,-1552]],[1145, 5,[-100,-502,-1529,-1532,-1534]],[1729, 1,[95]],[1427, 6,[-59,-457,-470,-937,-940,-942]],[1461, 8,[55,59,64,72,-631,-644,861,-863]],[1568, 4,[78,80,84,86]],[1725, 1,[119]],[1604, 1,[200]],[1337, 25,[370,377,-1069,-1170,-1265,1271,-1298,3623,3694,3716,-3770,3780,3822,-3914,3920,3932,-3945,3967,4075,4297,4549,-4590,-4593,-4675,-5138]],[1598, 1,[77]],[1197, 8,[60,425,443,469,-762,-2071,-2074,-2076]],[1774, 2,[65,110]],[1511, 5,[131,-134,418,1074,-2331]],[1453, 9,[48,55,61,67,137,148,-235,-646,-703]],[1563, 1,[268]],[1505, 5,[81,-706,-1790,-1793,-1795]],[1441, 6,[-141,-478,-646,-1536,-1539,-1579]],[1521, 1,[240]],[1413, 5,[-116,-794,-3464,-3467,-3873]],[1429, 8,[-56,87,-230,-243,245,-377,-380,-382]],[1253, 12,[91,-107,-656,-757,-832,-845,-878,884,-911,-1261,-1264,-1266]],[1790, 1,[68]],[1227, 6,[-67,-387,389,-962,-965,-967]],[1822, 7,[29,-47,65,69,77,-110,-129]],[1319, 17,[158,163,-169,261,-322,-1270,-1371,-1464,-1497,1503,-1530,1752,1816,-2205,-3101,-3104,-3106]],[813, 14,[-578,-4985,-6368,-7268,-7468,-7483,14381,14470,-16350,-16421,-16520,-16608,-26715,-29210]],[1738, 1,[335]],[1768, 2,[79,287]],[1599, 1,[99]],[1495, 4,[109,-123,747,-1992]],[1731, 1,[95]],[1611, 2,[474,857]],[1605, 2,[146,153]],[1389, 10,[249,267,282,-836,857,894,936,-2721,-2724,-2726]],[1834, 2,[85,234]],[1377, 40,[82,-121,147,286,297,-310,-322,-1478,-1579,-1692,-1725,1731,-1758,-3297,3598,-3633,3685,3687,3715,3791,4012,4014,4019,7335,7394,7453,7470,7523,7546,7611,7634,7696,7713,7768,7791,7853,7870,-7906,-7909,-7918]],[1157, 5,[-76,-1142,-4194,-4197,-4199]],[1513, 6,[-59,-223,-415,-1170,-1173,-1221]],[1846, 1,[187]],[1842, 7,[90,99,153,162,235,243,656]],[1564, 2,[-1916,1924]],[1522, 1,[334]],[1854, 3,[-189,210,330]],[1745, 4,[78,80,84,86]],[1507, 4,[87,-101,495,-1489]],[1823, 6,[-130,-154,-183,-249,-257,-270]],[1783, 18,[59,64,94,116,162,184,218,240,276,304,336,364,398,426,450,483,507,530]],[1754, 1,[64]],[1826, 297,[23,-32,-37,-43,-49,-55,-62,-69,-74,-80,-89,-95,-99,-104,-110,-115,-121,-125,129,-130,-136,139,-143,-149,-153,-159,-164,-171,-176,-182,-191,-195,-200,-210,-214,-220,-226,-234,240,-241,-246,-251,-256,-262,265,-269,-274,-279,-287,-295,-305,-309,-316,-324,-330,-336,-342,-348,352,-356,-360,-366,370,-373,-379,-384,-391,-396,-403,-412,-417,-423,-428,-433,-437,-442,445,-449,-457,-462,-466,-471,474,-480,-485,-492,-500,-506,-511,-515,-523,-528,-533,-541,-546,-553,-558,-566,-572,-580,-585,-592,-597,-604,-609,-617,-625,-630,-635,-640,-648,-653,-661,-666,-671,-676,-683,-692,-700,-707,-714,-720,-725,-731,-738,-745,-753,-760,-765,-773,-782,-787,-793,-799,-804,-812,-819,-824,-832,-839,842,-848,-857,-864,-873,-877,-881,-889,-895,-901,-905,-910,-915,-919,922,-923,926,-929,-933,-938,-943,-947,-952,-958,-963,-968,-973,-979,-985,989,-993,-999,-1003,-1008,-1015,1019,-1020,-1024,-1033,-1036,-1038,1041,-1046,-1051,-1055,-1063,-1069,-1075,-1079,-1085,-1091,-1096,1099,-1107,-1114,-1118,-1124,-1128,-1135,-1141,-1145,-1151,-1158,-1165,-1173,-1183,1186,-1191,1194,-1200,-1204,-1208,1211,-1216,1219,-1222,1226,-1229,1232,-1238,-1248,1251,-1258,-1267,-1275,-1286,1289,-1294,-1298,1301,-1306,-1313,-1318,-1326,-1334,1337,-1342,1345,-1352,1355,-1360,1363,-1368,-1375,1378,-1384,1388,-1392,1395,-1399,1402,-1406,1409,-1414,-1418,-1424,-1432,-1436,1439,-1444,-1448,-1454,-1464,-1470,-1474,-1478,-1484,-1489,-1495,-1499,1505,-1509,1515,-1518,1524,-1529,-1533,-1538,-1545,-1551,-1560,-1566,-1568,-1574,-1582,-1586,1589,-1592,-1599,-1605,-1611,-1617,-1623,-1628,1632,-1635,-1641]],[1874, 3,[-191,250,264]],[1769, 1,[69]],[1870, 3,[54,82,219]],[1497, 2,[155,-272]],[1421, 58,[65,-85,103,-598,623,630,637,644,652,660,668,678,688,698,709,720,730,738,746,755,-861,-868,-877,-884,-891,-900,-907,-914,-923,2043,2053,2063,2073,2084,2095,2106,2120,2134,2148,2163,2178,2192,2204,2216,2229,-2260,-2299,-2351,-2369,-2383,-2399,-2413,-2427,-2443,-2457,-2471,-2487,-5208]],[1606, 6,[47,49,51,53,55,57]],[1612, 1,[213]],[1835, 2,[60,87]],[1391, 4,[-42,147,149,-387]],[1776, 1,[53]],[1739, 4,[181,-293,316,370]],[1600, 6,[162,230,-384,803,975,1231]],[1863, 1,[19]],[1229, 5,[-182,-1039,-2431,-2434,-2735]],[1882, 1,[309]],[1847, 1,[-190]],[1733, 1,[86]],[1509, 2,[156,-274]],[1827, 56,[20,-26,-32,-37,-42,-48,-52,55,-61,-66,-72,-76,-80,-85,-93,-100,-107,-111,-118,-124,-131,-138,-146,-154,-161,-166,-173,-181,-185,-191,-197,-201,-207,-212,-217,220,-222,-227,233,-234,-238,241,-246,-251,-256,259,-266,269,-273,276,-283,288,-293,296,-301,304]],[1607, 1,[55]],[1890, 3,[-191,250,264]],[1898, 3,[54,82,219]],[1871, 1,[-219]],[1770, 10,[77,79,85,159,284,333,436,522,552,732]],[1875, 1,[-185]],[1777, 136,[71,91,93,95,110,112,114,129,131,133,148,150,152,167,169,171,186,188,190,205,207,209,224,226,228,243,245,247,270,272,285,287,289,304,306,308,310,327,329,331,333,335,354,356,358,360,362,364,385,387,389,391,393,395,397,420,422,424,426,428,430,432,434,459,461,463,465,467,469,471,473,475,502,504,506,508,510,512,514,516,518,520,554,556,570,572,574,591,593,595,597,617,619,621,623,625,648,650,652,654,656,658,684,686,688,690,692,694,696,725,727,729,731,733,735,737,739,771,773,775,777,779,781,783,785,787,822,824,826,828,830,832,834,836,838,840]],[1583, 2,[19,21]],[1613, 1,[179]],[1393, 6,[-40,-71,-262,-594,-597,-599]],[1891, 1,[-185]],[1876, 3,[-189,210,330]],[1899, 1,[-219]],[1828, 39,[20,23,-26,-34,-41,-46,-51,-59,-64,-69,-74,80,-81,-86,-92,-98,-105,-110,-115,-120,-125,-130,-135,-143,-150,-157,-164,-171,-178,181,-186,189,-193,196,-201,-210,213,-218,-227]],[1848, 3,[54,82,219]],[1892, 3,[-189,210,330]],[1914, 1,[-185]],[1922, 1,[-190]],[1524, 1,[160]],[1930, 1,[127]],[1900, 7,[-197,-206,244,246,249,-279,315]],[1946, 1,[93]],[1872, 7,[-197,-206,244,246,249,-279,315]],[1884, 1,[187]],[1849, 1,[-219]],[1923, 3,[54,82,219]],[1773, 4,[149,181,256,288]],[1915, 3,[-191,250,264]],[1939, 3,[58,60,62]],[1901, 1,[-185]],[1850, 7,[-197,-206,244,246,249,-279,315]],[1873, 1,[-185]],[1931, 3,[161,297,377]],[1924, 1,[-219]],[1885, 1,[-190]],[1902, 3,[-191,250,264]],[1954, 1,[252]],[1962, 5,[110,112,183,254,320]],[1779, 14,[116,174,201,208,644,694,711,716,740,858,-890,914,-1027,1032]],[1940, 1,[151]],[1916, 1,[-185]],[1851, 1,[-185]],[1925, 7,[-197,-206,244,246,249,-279,315]],[1852, 3,[-191,250,264]],[1565, 5,[151,218,681,958,1197]],[1515, 4,[-81,240,599,-709]],[1917, 3,[-189,210,330]],[1903, 1,[-185]],[1886, 3,[54,82,219]],[1941, 2,[58,61]],[1948, 1,[129]],[1746, 1,[178]],[1517, 7,[-65,-80,84,-149,-317,-320,-322]],[1855, 3,[216,349,417]],[1933, 3,[58,60,62]],[1904, 3,[-189,210,330]],[1853, 1,[-185]],[1942, 3,[48,56,224]],[1970, 6,[61,167,171,210,757,769]],[1887, 1,[-219]],[1978, 1,[58]],[1747, 4,[78,80,84,86]],[1824, 134,[16,-22,-27,-32,-39,-44,-49,-56,-65,-70,-76,-81,-87,-92,-96,-101,-105,-109,-113,116,-120,-128,-133,-137,-141,-146,149,-155,-160,-167,-171,-175,-179,-187,-193,-198,-206,-211,-215,-223,-228,-232,-237,-242,-247,-252,-260,-267,-274,-278,-285,-290,296,-297,-305,-311,-318,-325,-333,-341,-348,-353,-360,-368,-373,-377,-384,-390,-395,-403,-409,-414,-422,-427,-434,-439,-446,-451,-457,-462,-468,-474,-482,-490,-495,-500,-505,-513,-518,-526,-533,-538,-543,-548,-553,-560,-569,-577,-584,-588,-592,-597,-604,-610,-615,-620,-624,-628,-633,-639,-643,-650,-657,-661,-669,-676,-681,-689,-698,-702,-707,-713,-719,-724,-729,-737,-744,-749,-754,-762,-767,-774,-779,-785]],[1949, 2,[74,84]],[1926, 1,[-185]],[1601, 2,[282,730]],[1934, 1,[133]],[1780, 13,[-79,81,85,907,970,1011,1085,1135,1189,1231,1273,-1379,1386]],[1986, 6,[53,55,57,87,164,241]],[1785, 4,[78,110,219,251]],[1927, 3,[-191,250,264]],[1888, 7,[-197,-206,244,246,249,-279,315]],[1971, 3,[79,81,179]],[1944, 1,[85]],[1786, 2,[64,174]],[1905, 1,[124]],[1857, 1,[19]],[1928, 1,[-185]],[2002, 4,[70,72,-210,281]],[1889, 1,[-185]],[1781, 5,[54,56,-65,72,124]],[1972, 1,[205]],[1950, 1,[248]],[1859, 4,[18,20,22,26]],[1844, 1,[225]],[1973, 4,[49,76,144,146]],[1929, 3,[-189,210,330]],[2026, 1,[66]],[1936, 3,[58,60,62]],[2042, 1,[72]],[1980, 2,[172,318]],[1825, 132,[16,-20,-30,33,-38,41,-47,-51,54,-59,-63,66,-71,74,-78,81,-84,87,-92,96,-99,-104,-109,112,-116,119,-123,126,-130,-140,143,-150,-155,158,-163,166,-173,176,-181,184,-188,-197,-205,-216,219,-223,226,-231,-240,-244,247,-254,257,-276,279,-290,295,-300,303,-308,-312,315,-320,323,-329,332,-336,339,-344,347,-350,-357,-362,-370,-378,-383,386,-390,393,-398,401,-408,411,-416,419,-424,-433,-440,443,-449,452,-458,461,-466,470,-474,477,-496,499,-506,509,-515,518,-523,526,-531,534,-544,547,-554,557,-561,-568,571,-578,581,-585,588,-592,595,-599,602,-607,610,-613,616,-621,624,-630,633,-639,643]],[1608, 2,[51,159]],[1836, 6,[132,174,285,804,820,1116]],[2003, 3,[151,235,642]],[1965, 1,[197]],[1987, 6,[182,197,-208,214,395,992]],[1861, 1,[38]],[2034, 3,[269,302,314]],[1937, 1,[136]],[1829, 141,[20,-27,30,-41,-48,-56,-61,-65,-67,-76,-84,-93,-97,-106,-111,-116,-121,-156,-158,-165,-169,-173,175,-179,-183,-187,-191,-195,-199,205,-206,-215,-221,-226,-231,-236,-242,-247,-252,-257,-262,-267,-271,-277,-281,-285,-294,297,-302,305,-310,-319,322,-328,331,-336,339,-342,-348,-358,-364,-384,387,-394,-403,-408,411,-417,-424,427,-437,440,-447,450,-456,459,-465,-469,-474,-482,-488,-493,-499,-503,-510,-517,-521,-534,-544,-553,-559,-565,568,-574,-580,-586,-624,-633,-642,-651,654,-659,-667,-673,676,-682,-688,691,-698,-704,-711,714,-720,-726,731,-732,-737,-743,-749,-754,-769,-773,-777,781,-785,-790,-795,-801,804,-808,-816,-825,-834,-843,-849,-857,860,-864,-872,876,-881]],[2058, 1,[110]],[1974, 7,[158,162,225,999,1007,1039,1044]],[1741, 2,[140,230]],[1952, 1,[59]],[1584, 1,[370]],[1955, 3,[-148,-159,167]],[1837, 1,[120]],[1321, 23,[152,159,-164,-1466,-1567,-1703,-1736,1742,-1769,1771,1933,2075,2148,2254,-2950,-2956,-3003,-3009,-3092,-3168,-3760,-3763,-3765]],[1787, 16,[79,187,529,533,541,733,964,968,996,1000,1009,1013,1164,1168,1294,1298]],[2082, 2,[-67,131]],[1981, 1,[362]],[2074, 1,[282]],[1379, 24,[87,94,-101,-133,144,-153,161,164,166,197,203,-209,-218,225,-230,-1080,1230,-1237,1613,3493,3545,-3769,-3772,-3804]],[2005, 1,[145]],[1996, 2,[61,105]],[1975, 4,[83,85,197,223]],[1791, 11,[249,268,338,352,418,609,772,860,932,1120,3941]],[1919, 2,[244,271]],[2010, 5,[275,480,706,739,1407]],[1830, 84,[22,-27,-31,-36,-41,-45,-49,-53,-57,-61,-66,-76,-83,-87,-91,-95,-99,-103,-107,-111,-116,-120,-124,-128,-132,-136,-140,-148,155,-156,-160,-164,-171,-178,-184,-188,191,-195,198,-202,205,-209,212,-216,-221,-225,228,-247,250,-261,264,-268,271,-276,279,-282,-287,290,-294,297,-303,306,-310,-317,320,-327,330,-334,339,-340,343,-347,350,-353,356,-361,-366,-373,379,-382,390,-393,-403,-407]],[2035, 3,[222,225,266]],[1759, 32,[1166,1237,-1250,1521,1612,1616,1694,1749,1969,-2059,2065,2191,2494,2716,2854,3102,3567,3703,4130,4543,4728,4850,5849,6177,6239,7925,8117,8158,-8198,-8211,8377,-8443]],[1894, 1,[225]],[1585, 3,[112,114,116]],[1838, 1,[108]],[1953, 1,[438]],[1966, 3,[29,37,2681]],[2028, 7,[88,90,92,94,96,98,103]],[1609, 4,[447,797,1168,1196]],[1864, 4,[357,760,2209,3558]],[1381, 8,[42,47,-51,-56,-77,-87,-90,-92]],[2091, 4,[-67,89,91,93]],[2075, 4,[55,303,306,327]],[1982, 2,[-134,160]],[1976, 1,[205]],[2006, 3,[-83,385,389]],[2044, 4,[68,70,72,89]],[1792, 6,[-88,104,172,528,592,634]],[2099, 1,[109]],[1788, 17,[108,112,366,424,440,442,-445,460,462,600,795,956,958,1087,1431,1815,2230]],[1877, 5,[468,995,1090,1207,6680]],[2036, 4,[60,192,195,216]],[1571, 6,[214,469,571,-649,664,13282]],[1760, 6,[109,165,172,178,296,371]],[1988, 1,[203]],[1907, 1,[225]],[1967, 4,[244,248,290,432]],[2029, 3,[-183,190,200]],[1957, 1,[72]],[1977, 4,[49,76,144,146]],[1983, 7,[142,144,-152,178,187,275,312]],[2084, 8,[-66,-83,86,-142,170,182,185,206]],[1921, 1,[187]],[2046, 4,[57,234,237,258]],[2146, 2,[181,189]],[2007, 4,[204,207,244,-271]],[1896, 1,[187]],[2170, 1,[170]],[1878, 1,[100]],[2037, 1,[110]],[2030, 4,[99,101,103,105]],[2139, 7,[18,-55,-59,63,65,67,69]],[2154, 1,[101]],[2085, 2,[59,293]],[1794, 7,[-25,93,152,154,389,391,559]],[1909, 1,[187]],[2008, 1,[146]],[2011, 5,[267,413,724,757,1220]],[1990, 2,[147,149]],[2086, 4,[-234,-243,-254,-263]],[1879, 1,[-99]],[2155, 1,[241]],[1997, 4,[234,257,292,322]],[1897, 1,[-190]],[2012, 2,[59,203]],[2140, 4,[87,130,179,211]],[2186, 3,[227,688,720]],[1880, 1,[47]],[1910, 1,[-190]],[2087, 10,[-67,77,-92,-103,106,147,185,187,189,191]],[1992, 2,[107,135]],[2013, 3,[100,103,141]],[2009, 5,[80,223,-520,527,743]],[2060, 3,[685,705,1906]],[2194, 3,[83,85,190]],[1796, 3,[-24,221,223]],[2131, 7,[33,35,37,43,96,103,109]],[2014, 2,[36,-45]],[2187, 1,[205]],[1832, 1,[154]],[2033, 2,[54,56]],[1911, 3,[54,82,219]],[2171, 2,[128,538]],[2188, 4,[49,76,144,146]],[2143, 2,[74,89]],[1968, 3,[325,588,1076]],[2089, 8,[-66,-83,86,-142,170,182,185,206]],[1958, 3,[134,201,1152]],[2156, 1,[136]],[2061, 1,[94]],[2092, 1,[-170]],[2195, 1,[172]],[2015, 35,[48,-58,-67,70,-73,-81,-89,-97,100,-104,-106,109,-115,-124,-132,-141,148,-157,-167,170,-174,-184,-192,-199,212,-217,-224,-231,-240,-248,251,-255,258,-263,-272]],[1984, 10,[267,-636,667,676,996,1133,1143,1275,1340,1539]],[2115, 6,[99,-387,393,-1023,1030,1262]],[2076, 3,[1019,1677,1824]],[2125, 6,[33,57,224,249,437,464]],[1912, 1,[-219]],[2189, 4,[63,210,847,855]],[1998, 5,[72,103,-1008,1539,1655]],[1572, 8,[201,203,207,209,211,213,224,434]],[1969, 1,[137]],[2144, 1,[130]],[2048, 3,[200,202,204]],[2069, 1,[94]],[2093, 2,[-67,112]],[2038, 2,[352,1858]],[1797, 12,[51,-119,175,328,357,753,-757,765,784,788,796,815]],[2196, 3,[156,165,231]],[2172, 4,[234,257,292,322]],[2250, 1,[60]],[2234, 5,[665,1357,3043,3049,3125]],[2148, 5,[68,70,72,74,91]],[1985, 2,[193,833]],[2157, 3,[663,912,2047]],[1762, 1,[72]],[2116, 1,[192]],[1841, 7,[245,247,-406,596,1083,2653,5321]],[1748, 7,[273,-360,2037,-2115,2130,2211,4504]],[2126, 1,[105]],[2190, 3,[87,89,231]],[1913, 7,[-197,-206,244,246,249,-279,315]],[2133, 6,[-91,112,124,126,128,-303]],[2077, 4,[-234,-243,-254,-263]],[2100, 9,[1013,1410,1452,1456,1616,1702,2270,2453,3545]],[1866, 1,[289]],[2094, 2,[51,124]],[1798, 9,[48,89,145,147,176,291,414,-430,442]],[2235, 2,[47,55]],[2145, 1,[293]],[2251, 1,[138]],[2158, 1,[71]],[2039, 4,[292,474,702,805]],[2000, 3,[69,-133,151]],[2117, 1,[174]],[2306, 1,[188]],[2127, 5,[28,81,88,94,189]],[2191, 1,[205]],[1961, 1,[266]],[2078, 10,[-67,77,-92,-103,106,147,185,187,189,191]],[1574, 1,[55]],[2050, 3,[89,95,98]],[2101, 1,[149]],[2018, 4,[26,-34,-47,-55]],[2291, 3,[246,264,-282]],[2236, 2,[47,52]],[2330, 1,[128]],[2071, 1,[104]],[1749, 2,[-78,437]],[2159, 1,[198]],[2064, 2,[60,599]],[2095, 4,[90,297,540,812]],[2173, 5,[72,103,-1008,1539,1655]],[2149, 3,[212,470,508]],[2192, 4,[49,76,144,146]],[2307, 1,[-106]],[2292, 3,[138,200,211]],[2040, 1,[192]],[1868, 1,[187]],[2267, 7,[141,206,2930,3210,3288,3350,3352]],[1763, 6,[465,555,655,886,905,977]],[2237, 2,[81,86]],[2135, 5,[148,182,222,294,311]],[2102, 2,[203,244]],[2065, 1,[48]],[2283, 1,[-1348]],[2096, 8,[56,-59,69,-109,120,-167,176,210]],[2119, 2,[49,51]],[2051, 3,[81,406,408]],[2025, 96,[175,-184,-189,192,-197,-203,-208,-217,-225,-230,-245,248,-255,-262,-271,-280,-289,-291,-298,-307,309,-313,-318,-322,-328,-337,-342,-348,-353,-359,-361,-370,-378,-387,390,-395,398,-403,-412,415,-421,424,-429,432,-439,442,-448,451,-461,464,-471,474,-480,483,-489,-497,500,-506,-512,516,-521,-526,-531,-537,540,-544,547,-551,-557,-565,-588,-601,-610,-616,619,-625,-631,-637,-643,-656,-665,-674,-683,-689,-696,-704,-710,-728,-732,-737,-744,-759,-767,-772,-777,-783]],[1575, 4,[122,496,910,1337]],[2378, 10,[335,356,381,-447,466,517,532,549,556,665]],[2150, 1,[283]],[2129, 6,[19,21,30,-37,45,73]],[2080, 2,[-66,88]],[2300, 4,[57,154,205,253]],[2308, 1,[183]],[2193, 7,[241,245,295,991,999,1103,1108]],[1764, 3,[65,84,102]],[1869, 1,[-190]],[2161, 3,[68,70,87]],[2253, 1,[116]],[2394, 2,[-39,43]],[2268, 1,[85]],[2175, 3,[69,-133,151]],[2120, 2,[61,204]],[2347, 1,[235]],[2136, 4,[-108,348,789,1301]],[1576, 2,[55,57]],[2041, 10,[-92,104,319,506,908,1567,2205,2337,2590,3270]],[2402, 4,[148,150,152,160]],[2052, 2,[52,163]],[2151, 3,[105,108,183]],[2294, 2,[44,47]],[2309, 2,[148,223]],[2355, 1,[231]],[2332, 1,[344]],[2269, 3,[81,180,259]],[2162, 1,[170]],[2238, 4,[192,503,506,677]],[2103, 2,[59,115]],[2137, 6,[123,125,127,164,-328,-362]],[2121, 1,[209]],[2419, 5,[37,39,44,58,76]],[2254, 3,[134,420,452]],[2229, 7,[87,-431,437,-952,-1023,1030,1224]],[2097, 7,[328,330,355,363,458,465,-623]],[2053, 2,[166,169]],[2081, 2,[-123,-145]],[2427, 3,[21,34,40]],[2177, 4,[70,72,-210,281]],[2349, 1,[192]],[2435, 3,[21,29,35]],[2302, 1,[55]],[2163, 2,[160,163]],[2483, 5,[-54,-307,-364,-677,-736]],[2404, 2,[-41,45]],[2104, 2,[65,110]],[2255, 1,[176]],[2523, 1,[90]],[2230, 1,[99]],[2152, 3,[57,408,444]],[2395, 2,[856,4063]],[2547, 2,[113,127]],[2054, 4,[68,129,249,-831]],[2436, 1,[112]],[2372, 4,[238,244,291,577]],[2303, 1,[147]],[2286, 5,[62,243,266,316,388]],[2240, 1,[54]],[2105, 2,[57,124]],[1800, 56,[156,298,308,366,543,774,780,-801,824,1225,-1626,1632,2340,2388,-2841,2846,-2950,2954,-3032,3045,-3648,3656,-4179,4219,5146,5148,-5151,-5167,5176,-5354,5364,-6243,-6287,-6294,6317,-8458,8470,-9077,9084,-9153,9160,9290,-9301,9312,-9705,9711,11098,-11286,11303,11344,11542,11686,11790,11847,-11902,11909]],[2231, 1,[151]],[2153, 4,[68,70,72,89]],[2256, 1,[237]],[2429, 2,[45,314]],[2297, 3,[60,141,186]],[2396, 4,[79,81,83,104]],[2351, 1,[192]],[2179, 3,[154,156,-229]],[2287, 1,[79]],[2165, 1,[-81]],[2471, 1,[33]],[2106, 2,[169,315]],[2430, 1,[76]],[1801, 13,[79,93,268,321,323,393,395,400,402,404,406,408,410]],[2271, 6,[158,730,961,1191,1211,1837]],[2374, 1,[190]],[2166, 1,[51]],[2242, 1,[54]],[2437, 3,[1199,1200,1516]],[2304, 1,[699]],[2423, 1,[168]],[2405, 2,[1199,2613]],[1802, 1,[62]],[2055, 1,[152]],[2549, 2,[-519,-534]],[2107, 2,[191,931]],[2272, 2,[81,193]],[2233, 4,[68,70,72,89]],[2353, 1,[192]],[2258, 1,[198]],[2505, 3,[183,812,854]],[2527, 1,[64]],[2167, 1,[-140]],[2181, 1,[185]],[2589, 1,[554]],[2438, 7,[19,21,33,119,130,147,161]],[2489, 1,[33]],[2305, 1,[52]],[2406, 4,[118,120,122,143]],[2475, 1,[57]],[2289, 5,[57,183,247,278,353]],[2108, 6,[51,53,55,85,162,247]],[2273, 2,[82,259]],[2322, 1,[183]],[2336, 1,[183]],[2168, 1,[51]],[1804, 1,[69]],[2659, 2,[-39,-203]],[2591, 1,[215]],[2244, 1,[54]],[2425, 3,[21,34,40]],[2675, 1,[-28]],[2057, 1,[72]],[2477, 3,[-39,-246,-309]],[2433, 3,[21,34,40]],[2517, 1,[60]],[2400, 2,[-61,71]],[2629, 1,[296]],[2440, 1,[186]],[2169, 1,[124]],[2683, 1,[139]],[2715, 1,[26]],[2275, 3,[53,57,144]],[2362, 1,[183]],[2110, 2,[191,931]],[2493, 1,[-1337]],[2259, 3,[175,520,883]],[2699, 15,[313,493,704,1092,-1277,1283,1295,-1309,1335,-1420,1430,-1566,1629,1696,1993]],[2731, 1,[49]],[2441, 3,[204,213,230]],[2685, 1,[-50]],[2663, 43,[-29,32,52,63,71,133,-136,142,-144,-147,175,-178,184,-186,-189,205,218,-227,241,261,-270,281,295,304,322,335,342,357,364,372,392,406,426,436,443,459,466,513,534,551,562,569,586]],[2246, 1,[51]],[2111, 6,[51,53,55,85,162,247]],[2260, 2,[59,136]],[2733, 1,[65]],[2185, 1,[80]],[2687, 1,[201]],[2364, 2,[45,47]],[2771, 1,[74]],[2787, 1,[74]],[2665, 6,[-70,-146,-314,-415,-468,-524]],[2701, 3,[192,1205,1223]],[2112, 2,[212,565]],[2338, 1,[397]],[2689, 1,[29]],[2261, 2,[64,316]],[2759, 1,[30]],[2559, 1,[-29]],[2442, 1,[106]],[2617, 5,[113,-125,133,-142,-148]],[2325, 1,[213]],[2497, 1,[52]],[2529, 2,[72,79]],[2278, 3,[59,63,149]],[1806, 30,[135,-235,242,244,-465,-626,636,641,-930,935,-1073,1079,1083,-1157,1167,1172,-1435,1440,1442,-2089,2097,2099,-2736,2767,-2875,2884,3001,3655,-3738,3752]],[2679, 1,[33]],[2637, 1,[-59]],[2113, 2,[85,135]],[2821, 1,[-92]],[2366, 1,[183]],[2262, 2,[189,469]],[2377, 4,[276,1938,1994,2120]],[2691, 2,[192,214]],[2743, 1,[48]],[2249, 1,[57]],[2843, 1,[244]],[2859, 2,[429,-1388]],[2669, 1,[33]],[2829, 1,[92]],[2263, 1,[106]],[2693, 5,[125,-134,151,171,251]],[2745, 3,[-52,-67,71]],[2845, 1,[128]],[2653, 1,[40]],[2831, 2,[308,-786]],[2779, 2,[75,224]],[2695, 1,[-178]],[2847, 1,[65]],[2623, 1,[107]],[2531, 1,[60]],[2879, 1,[60]],[2639, 1,[-62]],[2697, 1,[35]],[2264, 7,[177,199,202,242,245,322,1299]],[1807, 12,[137,156,181,183,195,197,237,261,291,339,388,429]],[2849, 1,[57]],[2625, 3,[70,-83,-100]],[2533, 2,[59,63]],[2443, 1,[122]],[2657, 1,[58]],[2280, 1,[59]],[2881, 1,[50]],[2925, 1,[1659]],[2835, 1,[57]],[2867, 1,[101]],[3082, 150,[116,118,120,122,124,126,128,130,132,134,136,138,140,142,144,146,148,150,152,154,156,158,160,162,164,166,168,170,172,174,176,178,180,182,184,186,188,190,192,194,196,198,200,202,204,206,208,210,212,214,216,218,220,222,224,226,228,230,232,234,236,238,240,242,244,246,248,250,252,254,256,258,260,262,264,266,268,270,272,274,276,278,280,282,284,286,288,290,292,294,296,298,300,302,304,306,308,310,312,314,316,318,320,322,324,326,328,330,332,334,336,338,340,342,344,346,348,350,352,354,356,358,360,362,364,366,368,370,372,374,376,378,380,382,384,386,388,390,392,394,396,398,400,402,404,406,408,410,412,414]],[1808, 2,[62,68]],[2981, 1,[75]],[3106, 1,[127]],[2444, 1,[-310]],[2340, 2,[187,202]],[2939, 2,[-579,-2501]],[1309, 14,[46,-52,60,63,102,108,121,-339,374,399,460,-796,-799,-845]],[2281, 11,[71,166,443,492,626,697,730,1014,1164,1212,1250]],[2927, 2,[78,-92]],[2327, 2,[187,202]],[2837, 1,[69]],[2965, 2,[-38,691]],[1547, 5,[248,349,763,786,1018]],[2869, 1,[69]],[3083, 10,[47,49,51,53,55,57,59,61,63,65]],[2368, 2,[209,-360]],[2853, 1,[74]],[2729, 1,[58]],[2983, 5,[107,482,540,545,840]],[2941, 1,[35]],[1587, 1,[99]],[1485, 8,[40,-43,-56,-59,-216,-506,-509,-511]],[1533, 1,[225]],[2753, 1,[-50]],[2537, 1,[71]],[1548, 3,[-68,85,221]],[2943, 1,[-59]],[2390, 2,[-42,52]],[1261, 20,[165,169,191,204,214,-249,531,547,558,-1025,1046,1064,1317,1410,1413,1508,-1532,-2694,-2697,-2713]],[1479, 5,[-92,-297,-774,-777,-817]],[1534, 1,[84]],[2797, 2,[-200,-1127]],[3084, 86,[87,89,91,93,95,97,99,101,103,105,107,109,111,113,115,117,119,121,123,125,127,129,131,133,135,137,139,141,143,145,147,149,151,153,155,157,159,161,163,165,167,169,171,173,175,177,179,181,183,185,187,189,191,193,195,197,199,201,203,205,207,209,211,213,215,217,219,221,223,225,227,229,231,233,235,237,239,241,243,245,247,249,251,253,255,257]],[1588, 3,[276,279,316]],[1487, 7,[-147,150,-221,-818,-1028,-1031,-1033]],[1289, 8,[-82,85,-212,-216,-312,-842,-845,-1086]],[1549, 3,[170,504,926]],[2945, 2,[-67,-77]],[1554, 1,[49]],[2919, 2,[94,-108]],[2711, 1,[-150]],[2343, 1,[195]],[1539, 3,[309,366,819]],[1369, 10,[128,-292,-349,351,353,412,-905,-1068,-1071,-1073]],[2839, 1,[342]],[1481, 5,[47,-120,-174,-177,-179]],[3085, 31,[76,78,80,82,84,86,88,90,92,94,96,98,100,102,104,106,108,110,112,114,116,118,120,122,124,126,128,130,132,134,136]],[1590, 3,[-193,-200,208]],[1540, 3,[82,93,229]],[2887, 1,[-95]],[2841, 1,[124]],[2905, 1,[62]],[2345, 1,[197]],[1591, 1,[223]],[2985, 4,[155,610,1325,2206]],[3087, 2,[14,100]],[1541, 1,[229]],[1555, 1,[245]],[2889, 1,[-92]],[2967, 1,[-38]],[1297, 15,[99,147,200,282,-387,398,-996,-1097,-1172,-1205,1211,-1238,-1743,-1746,-1748]],[1592, 3,[-218,225,235]],[2857, 1,[139]],[1489, 6,[-69,-134,-279,-776,-779,-827]],[1371, 7,[85,93,-582,-595,-1276,-1279,-1312]],[1535, 6,[89,-385,391,-1013,1020,1217]],[2987, 1,[118]],[1311, 17,[55,61,95,101,114,-133,-830,-931,-1006,-1039,1045,-1072,1263,1327,-2058,-2061,-2138]],[1809, 3,[265,711,888]],[1542, 1,[228]],[1556, 1,[143]],[1593, 5,[232,234,236,238,240]],[2392, 4,[150,152,154,162]],[2989, 1,[123]],[1536, 1,[113]],[3107, 9,[1773,1993,2074,3014,3158,4651,5140,5732,5838]],[1313, 5,[-39,48,112,174,-450]],[1373, 15,[64,70,131,-192,-287,-314,-875,-976,-1051,-1084,1090,-1117,-1821,-1824,-1826]],[1810, 5,[-67,78,504,525,564]],[1543, 1,[225]],[1537, 3,[285,288,325]],[2973, 1,[37]],[3108, 2,[-96,188]],[1544, 1,[178]],[2975, 1,[-52]],[1812, 1,[-85]],[3109, 3,[97,617,820]],[3110, 6,[47,55,-176,-193,199,-361]],[1813, 7,[139,-649,669,678,814,941,1846]],[1814, 15,[76,78,85,100,136,314,317,319,321,392,567,600,635,683,712]],[2409, 6,[759,801,840,908,1861,7396]],[2410, 12,[266,-318,-363,-388,-495,-535,-610,-665,-695,697,1266,1376]],[1815, 7,[127,243,250,282,290,350,623]],[2411, 4,[117,127,133,231]],[2413, 2,[41,52]],[1816, 34,[120,127,153,200,215,241,243,378,663,717,786,1023,1331,1379,1574,1666,1671,1702,-1732,1740,-1844,1864,-2060,2075,-2259,2268,2445,2607,2689,2803,2894,2927,3335,3406]],[2415, 1,[27]],[2417, 1,[30]],[3088, 26,[-165,180,326,414,421,428,476,654,1575,-2133,3594,8604,9543,10942,10947,10973,10986,11054,11446,11491,15820,15825,15971,16279,16586,16878]],[3089, 4,[91,96,282,287]],[1818, 6,[82,84,86,93,220,281]],[3090, 3,[203,873,934]],[1819, 3,[91,-383,390]],[3091, 2,[85,90]],[1820, 7,[86,88,95,196,211,282,444]],[3092, 3,[182,610,1065]],[1821, 3,[127,162,932]],[3093, 5,[150,652,716,1052,1392]],[3094, 7,[411,901,948,953,2222,2384,2558]],[3095, 3,[466,956,1004]],[3096, 2,[528,1001]],[3097, 2,[295,302]],[3098, 4,[92,-253,278,326]],[3099, 1,[99]],[3100, 3,[296,465,2814]],[3101, 1,[266]],[3102, 1,[96]],[3103, 2,[336,1404]],[3104, 3,[116,1382,1657]],[3105, 2,[200,507]]],
"Class": [[178, 2,[989,994]],[282, 2,[46,206]],[278, 1,[848]],[313, 1,[89]],[273, 2,[45,1560]],[357, 1,[97]],[317, 7,[89,263,272,657,1146,1154,1163]],[395, 1,[23]],[416, 106,[3,13,15,17,19,23,32]],[412, 107,[2,11,13,15,17,20,40,42]],[418, 106,[2,11,13,15,17,20,32]],[426, 106,[2,11,13,15,17,20,29]],[424, 107,[2,11,13,15,17,20,29,31]],[450, 106,[3,13,15,17,19,23,32]],[428, 106,[2,11,13,15,17,20,30]],[448, 106,[2,11,13,15,17,20,25]],[434, 107,[2,11,13,15,17,20,29,31]],[422, 107,[2,11,13,15,17,20,40,42]],[436, 106,[3,13,15,17,19,23,32]],[485, 107,[2,11,13,15,17,20,33,35]],[466, 107,[2,11,13,15,17,20,28,30]],[470, 106,[4,14,16,18,20,25,34]],[456, 107,[2,11,13,15,17,20,29,31]],[446, 106,[2,11,13,15,17,20,33]],[319, 10,[247,421,430,1222,2332,2340,2357,4254,4262,4271]],[474, 107,[2,11,13,15,17,20,28,30]],[460, 106,[2,11,13,15,17,20,43]],[472, 107,[2,11,13,15,17,20,34,36]],[481, 106,[2,11,13,15,17,20,34]],[493, 107,[2,11,13,15,17,20,50,52]],[476, 107,[2,11,13,15,17,20,32,34]],[468, 107,[2,11,13,15,17,20,28,30]],[462, 106,[2,11,13,15,17,20,27]],[547, 106,[2,11,13,15,17,20,34]],[521, 106,[2,11,13,15,17,20,42]],[555, 106,[2,11,13,15,17,20,32]],[414, 107,[2,11,13,15,17,20,50,52]],[517, 107,[2,11,13,15,17,20,48,217]],[464, 107,[2,11,13,15,17,20,29,31]],[535, 106,[2,11,13,15,17,20,61]],[527, 110,[2,11,13,15,17,20,49,90,116,281,324]],[531, 107,[2,11,13,15,17,20,42,87]],[573, 108,[2,11,13,15,17,20,36,85,180]],[565, 107,[2,11,13,15,17,20,48,169]],[577, 106,[2,11,13,15,17,20,65]],[569, 107,[2,11,13,15,17,20,50,52]],[537, 106,[2,11,13,15,17,20,61]],[529, 107,[2,11,13,15,17,20,42,46]],[501, 107,[2,11,13,15,17,20,57,295]],[430, 107,[2,11,13,15,17,20,49,51]],[579, 106,[2,11,13,15,17,20,36]],[593, 107,[2,11,13,15,17,20,34,58]],[440, 108,[2,11,13,15,17,20,42,210,506]],[489, 107,[2,11,13,15,17,20,33,35]],[595, 107,[2,11,13,15,17,20,33,64]],[533, 106,[2,11,13,15,17,20,61]],[420, 107,[2,11,13,15,17,20,32,34]],[505, 107,[2,11,13,15,17,20,72,137]],[432, 107,[2,11,13,15,17,20,40,42]],[444, 108,[2,11,13,15,17,20,39,91,491]],[619, 106,[2,11,13,15,17,20,43]],[525, 107,[2,11,13,15,17,20,48,57]],[603, 106,[2,11,13,15,17,20,77]],[571, 106,[2,11,13,15,17,20,34]],[615, 107,[2,11,13,15,17,20,36,38]],[438, 107,[2,11,13,15,17,20,52,54]],[452, 107,[2,11,13,15,17,20,49,51]],[633, 107,[2,11,13,15,17,20,62,64]],[605, 106,[2,11,13,15,17,20,33]],[631, 106,[2,11,13,15,17,20,63]],[627, 106,[2,11,13,15,17,20,52]],[621, 106,[2,11,13,15,17,20,64]],[637, 106,[2,11,13,15,17,20,65]],[617, 107,[2,11,13,15,17,20,36,38]],[635, 106,[2,11,13,15,17,20,72]],[651, 107,[2,11,13,15,17,20,50,52]],[647, 106,[2,11,13,15,17,20,51]],[454, 107,[2,11,13,15,17,20,40,42]],[653, 106,[2,11,13,15,17,20,34]],[523, 107,[2,11,13,15,17,20,40,46]],[649, 106,[2,11,13,15,17,20,44]],[543, 106,[2,11,13,15,17,20,38]],[495, 109,[2,11,13,15,17,20,48,136,139,316]],[599, 106,[2,11,13,15,17,20,104]],[509, 106,[2,11,13,15,17,20,33]],[611, 106,[2,11,13,15,17,20,54]],[539, 107,[2,11,13,15,17,20,44,220]],[567, 106,[2,11,13,15,17,20,34]],[561, 106,[2,11,13,15,17,20,41]],[497, 108,[2,11,13,15,17,20,49,114,118]],[487, 107,[2,11,13,15,17,20,33,35]],[601, 106,[2,11,13,15,17,20,47]],[519, 106,[2,11,13,15,17,20,46]],[587, 111,[2,11,13,15,17,20,38,103,156,182,346,389]],[491, 107,[2,11,13,15,17,20,33,35]],[607, 106,[2,11,13,15,17,20,105]],[563, 106,[2,11,13,15,17,20,34]],[583, 106,[2,11,13,15,17,20,96]],[551, 106,[2,11,13,15,17,20,62]],[503, 107,[2,11,13,15,17,20,57,107]],[557, 106,[2,11,13,15,17,20,36]],[659, 106,[2,11,13,15,17,20,82]],[402, 3,[731,1107,1231]],[641, 106,[2,11,13,15,17,20,34]],[639, 106,[2,11,13,15,17,20,93]],[442, 108,[2,11,13,15,17,20,41,126,557]],[609, 106,[2,11,13,15,17,20,43]],[575, 106,[2,11,13,15,17,20,72]],[513, 106,[2,11,13,15,17,20,153]],[507, 106,[2,11,13,15,17,20,33]],[499, 110,[2,11,13,15,17,20,36,124,127,180,205]],[613, 106,[2,11,13,15,17,20,44]],[458, 107,[2,11,13,15,17,20,53,55]],[643, 108,[2,11,13,15,17,20,53,125,128]],[549, 109,[2,11,13,15,17,20,109,427,986,1024]],[597, 108,[2,11,13,15,17,20,39,114,370]],[545, 106,[2,11,13,15,17,20,34]],[351, 10,[132,355,364,1156,2106,2114,2139,5904,5912,5921]],[589, 106,[2,11,13,15,17,20,124]],[483, 107,[2,11,13,15,17,20,33,35]],[553, 106,[2,11,13,15,17,20,79]],[773, 110,[2,11,13,15,17,20,37,137,207,235,273]],[541, 106,[2,11,13,15,17,20,39]],[559, 106,[2,11,13,15,17,20,67]],[645, 108,[2,11,13,15,17,20,45,117,120]],[623, 106,[2,11,13,15,17,20,70]],[707, 111,[2,11,13,15,17,20,45,262,332,396,436,489]],[779, 111,[2,11,13,15,17,20,37,164,234,262,300,352]],[629, 111,[2,11,13,15,17,20,52,137,149,152,783,817]],[326, 172,[1,10,12,14,16,18,51,82,90,98,124,133,141,166,235,242,249,258,281,290,305,326,334,341,350,365,398,407,452,514,523,544,586,594,720,762,782,788,819,862,905,935,941,963,990,1024,1264,1410,1418,1442,1509,1624,2077,2582,2658,2665,2687,2694,2701,2713,2727,2732,2765,2810,2836,2947,2997,3006,3022,3412,3421,3517,3745]],[787, 111,[2,11,13,15,17,20,37,242,312,340,378,430]],[581, 106,[2,11,13,15,17,20,36]],[661, 106,[2,11,13,15,17,20,51]],[667, 119,[2,11,13,15,17,20,133,303,308,313,324,331,338,341,863,906,928,979,1012,1042]],[729, 111,[2,11,13,15,17,20,38,280,350,414,452,504]],[511, 106,[2,11,13,15,17,20,91]],[777, 111,[2,11,13,15,17,20,39,270,340,382,420,472]],[783, 111,[2,11,13,15,17,20,37,201,271,299,337,389]],[795, 111,[2,11,13,15,17,20,38,408,478,542,580,632]],[691, 110,[2,11,13,15,17,20,54,1534,1604,1747,1785]],[789, 111,[2,11,13,15,17,20,37,154,224,252,290,342]],[811, 111,[2,11,13,15,17,20,38,282,352,416,454,506]],[711, 111,[2,11,13,15,17,20,77,1194,1264,1388,1426,1478]],[749, 111,[2,11,13,15,17,20,45,885,955,995,1033,1085]],[775, 111,[2,11,13,15,17,20,39,198,268,313,351,403]],[781, 111,[2,11,13,15,17,20,37,211,281,309,347,399]],[807, 111,[2,11,13,15,17,20,84,301,371,435,473,525]],[815, 111,[2,11,13,15,17,20,48,485,555,619,657,709]],[833, 111,[2,11,13,15,17,20,38,475,545,609,647,699]],[663, 107,[2,11,13,15,17,20,92,269]],[803, 111,[2,11,13,15,17,20,38,887,957,997,1035,1087]],[839, 112,[2,11,13,15,17,20,37,43,143,213,277,315,367]],[679, 111,[2,11,13,15,17,20,38,1200,1270,1421,1461,1514]],[737, 111,[2,11,13,15,17,20,38,900,970,1010,1048,1100]],[765, 111,[2,11,13,15,17,20,37,1036,1106,1257,1295,1347]],[675, 114,[2,11,13,15,17,20,38,533,551,2225,2276,2453,2491,2532,2584]],[791, 111,[2,11,13,15,17,20,38,1272,1342,1493,1531,1587]],[753, 110,[2,11,13,15,17,20,64,1227,1297,1448,1486]],[733, 114,[2,11,13,15,17,20,37,424,442,2116,2167,2335,2344,2382,2423]],[731, 111,[2,11,13,15,17,20,43,343,413,441,481,534]],[515, 106,[2,11,13,15,17,20,89]],[785, 111,[2,11,13,15,17,20,37,200,270,298,336,388]],[723, 115,[2,11,13,15,17,20,48,930,948,2622,2673,2959,2968,3006,3047,3099]],[709, 111,[2,11,13,15,17,20,57,921,991,1031,1071,1124]],[855, 111,[2,11,13,15,17,20,38,327,397,461,499,551]],[741, 114,[2,11,13,15,17,20,35,317,335,2009,2060,2228,2237,2275,2316]],[699, 111,[2,11,13,15,17,20,37,1779,1849,2014,2052,2104]],[751, 111,[2,11,13,15,17,20,38,368,438,502,540,598]],[735, 111,[2,11,13,15,17,20,37,243,313,377,415,467]],[669, 106,[2,11,13,15,17,20,69]],[687, 111,[2,11,13,15,17,20,89,896,966,1018,1058,1121]],[655, 108,[2,11,13,15,17,20,62,196,1355]],[479, 106,[2,11,13,15,17,20,227]],[817, 111,[2,11,13,15,17,20,38,793,863,903,941,993]],[665, 106,[2,11,13,15,17,20,86]],[757, 115,[2,11,13,15,17,20,37,789,807,2481,2532,2732,2741,2779,2820,2872]],[743, 111,[2,11,13,15,17,20,50,277,347,411,449,501]],[767, 111,[2,11,13,15,17,20,37,1047,1117,1268,1306,1358]],[903, 111,[2,11,13,15,17,20,49,124,194,222,260,312]],[797, 111,[2,11,13,15,17,20,37,1205,1275,1426,1464,1516]],[703, 111,[2,11,13,15,17,20,37,1645,1715,1866,1904,1956]],[689, 109,[2,11,13,15,17,20,69,73,296,385]],[585, 111,[2,11,13,15,17,20,294,343,864,874,1306,1326]],[809, 111,[2,11,13,15,17,20,40,854,924,969,1007,1059]],[671, 108,[2,11,13,15,17,20,173,1334,2684]],[799, 111,[2,11,13,15,17,20,38,1174,1244,1395,1433,1485]],[857, 111,[2,11,13,15,17,20,38,266,336,400,438,490]],[841, 112,[2,11,13,15,17,20,37,43,238,308,372,410,462]],[761, 115,[2,11,13,15,17,20,39,1016,1034,2708,2759,2881,2890,2928,2969,3021]],[727, 115,[2,11,13,15,17,20,51,989,1007,2681,2732,3018,3027,3065,3106,3158]],[899, 108,[2,11,13,15,17,20,39,64,67]],[907, 111,[2,11,13,15,17,20,43,352,422,450,488,540]],[823, 114,[2,11,13,15,17,20,38,439,457,2131,2182,2359,2397,2438,2497]],[919, 111,[2,11,13,15,17,20,38,257,327,391,429,481]],[851, 111,[2,11,13,15,17,20,38,1460,1530,1681,1719,1771]],[869, 111,[2,11,13,15,17,20,38,1397,1467,1618,1656,1711]],[739, 111,[2,11,13,15,17,20,40,1168,1238,1358,1396,1448]],[871, 111,[2,11,13,15,17,20,41,1159,1367,1432,1470,1522]],[943, 106,[2,11,13,15,17,20,86]],[829, 111,[2,11,13,15,17,20,121,865,935,1054,1094,1147]],[625, 106,[2,11,13,15,17,20,127]],[825, 114,[2,11,13,15,17,20,38,684,702,2376,2427,2604,2642,2683,2741]],[657, 109,[2,11,13,15,17,20,60,237,246,817]],[705, 111,[2,11,13,15,17,20,79,321,391,419,457,514]],[955, 106,[2,11,13,15,17,20,73]],[693, 111,[2,11,13,15,17,20,38,1486,1556,1707,1747,1800]],[961, 106,[2,11,13,15,17,20,36]],[847, 115,[2,11,13,15,17,20,37,156,174,1848,1899,2067,2076,2114,2155,2207]],[755, 114,[2,11,13,15,17,20,37,376,394,2068,2119,2287,2296,2334,2375]],[973, 106,[2,11,13,15,17,20,58]],[979, 106,[2,11,13,15,17,20,47]],[977, 107,[2,11,13,15,17,20,68,70]],[793, 115,[2,11,13,15,17,20,37,224,242,1916,1967,2135,2144,2182,2223,2275]],[867, 110,[2,11,13,15,17,20,88,1224,1404,1469,1507]],[935, 108,[2,11,13,15,17,20,62,436,750]],[981, 106,[2,11,13,15,17,20,57]],[965, 107,[2,11,13,15,17,20,36,38]],[957, 106,[2,11,13,15,17,20,33]],[681, 114,[2,11,13,15,17,20,38,767,785,2459,2510,2687,2725,2766,2818]],[951, 106,[2,11,13,15,17,20,64]],[875, 115,[2,11,13,15,17,20,50,1148,1166,2840,2891,3092,3101,3139,3180,3232]],[983, 106,[2,11,13,15,17,20,80]],[859, 114,[2,11,13,15,17,20,38,770,788,2462,2513,2690,2728,2769,2823]],[921, 111,[2,11,13,15,17,20,38,273,343,407,445,497]],[911, 111,[2,11,13,15,17,20,69,991,1061,1101,1139,1191]],[967, 106,[2,11,13,15,17,20,36]],[725, 115,[2,11,13,15,17,20,48,916,934,2608,2659,2945,2954,2992,3033,3085]],[963, 106,[2,11,13,15,17,20,33]],[947, 106,[2,11,13,15,17,20,67]],[997, 106,[2,11,13,15,17,20,116]],[953, 106,[2,11,13,15,17,20,73]],[863, 115,[2,11,13,15,17,20,48,935,953,2627,2678,2964,2973,3011,3052,3104]],[713, 115,[2,11,13,15,17,20,48,939,957,2631,2682,2968,2977,3015,3056,3108]],[985, 106,[2,11,13,15,17,20,56]],[745, 114,[2,11,13,15,17,20,50,968,986,2660,2711,2967,3005,3046,3098]],[715, 116,[2,11,13,15,17,20,153,511,529,2203,2254,2385,2397,2416,2459,2509,2618]],[879, 111,[2,11,13,15,17,20,83,1418,1488,1603,1641,1695]],[805, 115,[2,11,13,15,17,20,64,807,825,2499,2720,2834,2843,2881,2922,2987]],[999, 106,[2,11,13,15,17,20,59]],[873, 111,[2,11,13,15,17,20,37,1100,1170,1321,1359,1411]],[1013, 106,[2,11,13,15,17,20,99]],[1021, 106,[2,11,13,15,17,20,102]],[1005, 107,[2,11,13,15,17,20,78,80]],[719, 111,[2,11,13,15,17,20,193,1489,1643,1889,1929,2059]],[883, 110,[2,11,13,15,17,20,68,1594,1664,1815,1853]],[949, 106,[2,11,13,15,17,20,57]],[969, 106,[2,11,13,15,17,20,83]],[915, 114,[2,11,13,15,17,20,37,371,389,2063,2114,2282,2291,2329,2370]],[591, 106,[2,11,13,15,17,20,166]],[1029, 106,[2,11,13,15,17,20,93]],[1041, 106,[2,11,13,15,17,20,67]],[971, 106,[2,11,13,15,17,20,56]],[1001, 106,[2,11,13,15,17,20,86]],[1053, 106,[2,11,13,15,17,20,105]],[1045, 106,[2,11,13,15,17,20,80]],[1057, 106,[2,11,13,15,17,20,85]],[1047, 106,[2,11,13,15,17,20,56]],[1003, 106,[2,11,13,15,17,20,82]],[819, 111,[2,11,13,15,17,20,48,1505,1575,1687,1725,1777]],[701, 115,[2,11,13,15,17,20,48,990,1008,2682,2733,3019,3028,3066,3107,3159]],[1043, 107,[2,11,13,15,17,20,84,86]],[975, 107,[2,11,13,15,17,20,66,68]],[885, 111,[2,11,13,15,17,20,38,197,267,331,369,421]],[931, 111,[2,11,13,15,17,20,37,1299,1369,1520,1558,1610]],[1059, 106,[2,11,13,15,17,20,279]],[887, 114,[2,11,13,15,17,20,40,1073,1091,2765,2816,2945,2983,3024,3076]],[1033, 106,[2,11,13,15,17,20,134]],[937, 107,[2,11,13,15,17,20,55,152]],[717, 111,[2,11,13,15,17,20,88,254,324,539,577,654]],[1093, 106,[2,11,13,15,17,20,38]],[1069, 106,[2,11,13,15,17,20,106]],[913, 111,[2,11,13,15,17,20,38,324,394,422,460,512]],[1081, 106,[2,11,13,15,17,20,99]],[1007, 106,[2,11,13,15,17,20,159]],[849, 111,[2,11,13,15,17,20,38,1080,1150,1301,1339,1391]],[927, 114,[2,11,13,15,17,20,37,376,394,2068,2119,2287,2296,2334,2375]],[939, 106,[2,11,13,15,17,20,53]],[1015, 106,[2,11,13,15,17,20,94]],[1089, 106,[2,11,13,15,17,20,38]],[989, 106,[2,11,13,15,17,20,225]],[843, 115,[2,11,13,15,17,20,39,41,898,916,2590,2641,2757,2766,2804,2845]],[769, 115,[2,11,13,15,17,20,37,44,152,170,1844,1895,2063,2072,2110,2151]],[987, 107,[2,11,13,15,17,20,290,292]],[1055, 107,[2,11,13,15,17,20,162,164]],[1009, 106,[2,11,13,15,17,20,84]],[1117, 112,[2,11,13,15,17,20,49,90,113,117,195,287,334]],[1011, 106,[2,11,13,15,17,20,47]],[835, 114,[2,11,13,15,17,20,124,2166,2184,3858,3909,4060,4098,4139,4191]],[933, 107,[2,11,13,15,17,20,158,228]],[1125, 106,[2,11,13,15,17,20,33]],[941, 107,[2,11,13,15,17,20,53,335]],[881, 111,[2,11,13,15,17,20,79,405,475,503,541,593]],[695, 114,[2,11,13,15,17,20,121,1954,1972,3646,3697,3963,3972,4010,4051]],[1017, 107,[2,11,13,15,17,20,175,177]],[683, 111,[2,11,13,15,17,20,40,420,490,548,588,641]],[1105, 107,[2,11,13,15,17,20,126,128]],[1025, 106,[2,11,13,15,17,20,392]],[673, 114,[2,11,13,15,17,20,37,553,571,2245,2296,2464,2473,2511,2552]],[1095, 107,[2,11,13,15,17,20,183,185]],[1071, 106,[2,11,13,15,17,20,72]],[1091, 106,[2,11,13,15,17,20,67]],[759, 115,[2,11,13,15,17,20,37,745,763,2437,2488,2688,2697,2735,2776,2828]],[923, 114,[2,11,13,15,17,20,37,602,620,2294,2345,2513,2522,2560,2601]],[837, 111,[2,11,13,15,17,20,49,481,551,615,653,705]],[771, 111,[2,11,13,15,17,20,38,270,340,404,442,494]],[909, 114,[2,11,13,15,17,20,37,407,425,2099,2150,2318,2327,2365,2406]],[1019, 107,[2,11,13,15,17,20,66,68]],[905, 115,[2,11,13,15,17,20,88,1452,1470,3144,3195,3324,3333,3371,3412,3482]],[1109, 106,[2,11,13,15,17,20,148]],[1097, 107,[2,11,13,15,17,20,60,62]],[991, 106,[2,11,13,15,17,20,228]],[1077, 107,[2,11,13,15,17,20,193,195]],[1119, 106,[2,11,13,15,17,20,37]],[821, 114,[2,11,13,15,17,20,37,384,402,2076,2127,2295,2304,2342,2383]],[1073, 106,[2,11,13,15,17,20,56]],[1167, 106,[2,11,13,15,17,20,37]],[801, 114,[2,11,13,15,17,20,46,398,416,2090,2141,2318,2356,2397,2458]],[993, 106,[2,11,13,15,17,20,239]],[1171, 106,[2,11,13,15,17,20,50]],[1061, 107,[2,11,13,15,17,20,106,108]],[1023, 106,[2,11,13,15,17,20,337]],[1027, 106,[2,11,13,15,17,20,67]],[1131, 106,[2,11,13,15,17,20,84]],[1203, 106,[2,11,13,15,17,20,37]],[1099, 106,[2,11,13,15,17,20,60]],[1111, 106,[2,11,13,15,17,20,56]],[929, 110,[2,11,13,15,17,20,44,1475,1545,1696,1734]],[845, 111,[2,11,13,15,17,20,38,1054,1124,1275,1313,1365]],[1079, 106,[2,11,13,15,17,20,113]],[1121, 109,[2,11,13,15,17,20,37,46,83,256]],[901, 115,[2,11,13,15,17,20,48,970,988,2662,2713,2999,3008,3046,3087,3139]],[1223, 110,[2,11,13,15,17,20,37,56,62,144,155]],[1147, 108,[2,11,13,15,17,20,75,276,793]],[1101, 107,[2,11,13,15,17,20,164,166]],[959, 106,[2,11,13,15,17,20,46]],[1035, 106,[2,11,13,15,17,20,262]],[917, 111,[2,11,13,15,17,20,47,1378,1448,1505,1543,1595]],[1215, 114,[2,11,13,15,17,20,68,145,158,161,168,243,293,361,394]],[1075, 106,[2,11,13,15,17,20,70]],[1063, 107,[2,11,13,15,17,20,72,74]],[865, 114,[2,11,13,15,17,20,37,375,393,2067,2118,2286,2295,2333,2374]],[677, 113,[2,11,13,15,17,20,75,978,3024,3094,3358,3395,3487,3539]],[1103, 106,[2,11,13,15,17,20,28]],[1123, 106,[2,11,13,15,17,20,37]],[747, 115,[2,11,13,15,17,20,50,1100,1118,2792,2843,3051,3060,3098,3139,3191]],[1283, 108,[2,11,13,15,17,20,54,477,481]],[1271, 108,[2,11,13,15,17,20,57,138,142]],[1065, 106,[2,11,13,15,17,20,120]],[1139, 112,[2,11,13,15,17,20,99,270,280,520,570,641,702]],[1299, 111,[2,11,13,15,17,20,47,157,164,168,362,383]],[1211, 107,[2,11,13,15,17,20,40,42]],[1217, 106,[2,11,13,15,17,20,74]],[1151, 110,[2,11,13,15,17,20,38,249,252,598,631]],[1303, 106,[2,11,13,15,17,20,79]],[1127, 108,[2,11,13,15,17,20,94,269,701]],[1301, 106,[2,11,13,15,17,20,75]],[861, 115,[2,11,13,15,17,20,48,926,944,2618,2669,2955,2964,3002,3043,3095]],[1173, 107,[2,11,13,15,17,20,32,34]],[1323, 106,[2,11,13,15,17,20,44]],[1149, 108,[2,11,13,15,17,20,37,71,178]],[763, 115,[2,11,13,15,17,20,37,1213,1231,2905,2956,3156,3165,3203,3244,3296]],[877, 115,[2,11,13,15,17,20,48,1058,1076,2750,2801,3087,3096,3134,3175,3227]],[1031, 106,[2,11,13,15,17,20,370]],[1037, 106,[2,11,13,15,17,20,137]],[721, 114,[2,11,13,15,17,20,38,814,832,2506,2557,2734,2772,2813,2865]],[1049, 106,[2,11,13,15,17,20,237]],[1327, 106,[2,11,13,15,17,20,35]],[1039, 106,[2,11,13,15,17,20,83]],[1355, 106,[2,11,13,15,17,20,31]],[1329, 106,[2,11,13,15,17,20,42]],[1359, 109,[2,11,13,15,17,20,51,156,222,243]],[1357, 106,[2,11,13,15,17,20,36]],[1113, 106,[2,11,13,15,17,20,158]],[1279, 110,[2,11,13,15,17,20,146,194,198,234,238]],[1205, 111,[2,11,13,15,17,20,423,426,1734,-1739,1824,-1834]],[889, 115,[2,11,13,15,17,20,48,924,942,2616,2667,2953,2962,3000,3041,3093]],[1213, 106,[2,11,13,15,17,20,34]],[1129, 106,[2,11,13,15,17,20,35]],[1183, 106,[2,11,13,15,17,20,124]],[1115, 106,[2,11,13,15,17,20,134]],[1219, 106,[2,11,13,15,17,20,93]],[995, 107,[2,11,13,15,17,20,179,181]],[1291, 107,[2,11,13,15,17,20,62,65]],[1343, 106,[2,11,13,15,17,20,48]],[1235, 106,[2,11,13,15,17,20,64]],[1169, 107,[2,11,13,15,17,20,65,171]],[1179, 106,[2,11,13,15,17,20,59]],[1133, 106,[2,11,13,15,17,20,111]],[1067, 107,[2,11,13,15,17,20,86,88]],[1199, 106,[2,11,13,15,17,20,37]],[1339, 109,[2,11,13,15,17,20,53,74,78,980]],[1325, 106,[2,11,13,15,17,20,50]],[1403, 106,[2,11,13,15,17,20,33]],[1221, 107,[2,11,13,15,17,20,50,52]],[1375, 110,[2,11,13,15,17,20,68,126,130,708,732]],[1347, 110,[2,11,13,15,17,20,67,113,117,185,189]],[1395, 106,[2,11,13,15,17,20,34]],[827, 111,[2,11,13,15,17,20,166,1856,1926,1966,2004,2056]],[1331, 108,[2,11,13,15,17,20,54,104,108]],[1083, 106,[2,11,13,15,17,20,291]],[1315, 108,[2,11,13,15,17,20,53,108,112]],[1407, 106,[2,11,13,15,17,20,68]],[1255, 108,[2,11,13,15,17,20,53,92,483]],[831, 115,[2,11,13,15,17,20,117,1382,1400,3074,3125,3245,3254,3292,3333,3385]],[1273, 108,[2,11,13,15,17,20,56,101,105]],[1153, 106,[2,11,13,15,17,20,71]],[1263, 108,[2,11,13,15,17,20,90,279,283]],[1175, 106,[2,11,13,15,17,20,36]],[1191, 106,[2,11,13,15,17,20,62]],[1231, 106,[2,11,13,15,17,20,109]],[1281, 108,[2,11,13,15,17,20,85,142,146]],[1335, 108,[2,11,13,15,17,20,74,115,119]],[1159, 106,[2,11,13,15,17,20,71]],[1135, 108,[2,11,13,15,17,20,72,135,249]],[1431, 106,[2,11,13,15,17,20,68]],[1405, 107,[2,11,13,15,17,20,71,169]],[895, 115,[2,11,13,15,17,20,46,1977,1995,3669,3720,3888,3897,3935,3976,4028]],[853, 109,[2,11,13,15,17,20,245,1009,1903,2075]],[945, 106,[2,11,13,15,17,20,200]],[697, 111,[2,11,13,15,17,20,38,1329,1399,1550,1588,1640]],[1443, 108,[2,11,13,15,17,20,54,-86,-124]],[1181, 106,[2,11,13,15,17,20,37]],[1267, 106,[2,11,13,15,17,20,74]],[1397, 107,[2,11,13,15,17,20,36,38]],[1345, 108,[2,11,13,15,17,20,39,80,84]],[1361, 109,[2,11,13,15,17,20,51,94,318,680]],[1207, 107,[2,11,13,15,17,20,62,234]],[1233, 106,[2,11,13,15,17,20,55]],[1409, 106,[2,11,13,15,17,20,36]],[1257, 106,[2,11,13,15,17,20,53]],[1185, 106,[2,11,13,15,17,20,71]],[891, 111,[2,11,13,15,17,20,38,277,347,411,449,501]],[1107, 106,[2,11,13,15,17,20,237]],[1285, 107,[2,11,13,15,17,20,54,146]],[1237, 107,[2,11,13,15,17,20,63,65]],[1433, 106,[2,11,13,15,17,20,53]],[1447, 109,[2,11,13,15,17,20,65,156,160,283]],[1383, 110,[2,11,13,15,17,20,45,117,121,298,451]],[1415, 106,[2,11,13,15,17,20,33]],[1275, 106,[2,11,13,15,17,20,75]],[1471, 106,[2,11,13,15,17,20,42]],[1341, 109,[2,11,13,15,17,20,52,92,96,937]],[1349, 108,[2,11,13,15,17,20,85,659,918]],[1305, 110,[2,11,13,15,17,20,135,331,335,1083,3001]],[1177, 106,[2,11,13,15,17,20,44]],[1475, 106,[2,11,13,15,17,20,41]],[1445, 110,[2,11,13,15,17,20,50,-108,120,-154,175]],[685, 114,[2,11,13,15,17,20,54,765,783,2457,2607,2693,2731,2772,2824]],[1399, 107,[2,11,13,15,17,20,36,38]],[1137, 108,[2,11,13,15,17,20,63,162,406]],[897, 111,[2,11,13,15,17,20,38,462,532,596,634,686]],[1193, 106,[2,11,13,15,17,20,45]],[1187, 106,[2,11,13,15,17,20,63]],[1155, 106,[2,11,13,15,17,20,65]],[1293, 108,[2,11,13,15,17,20,59,87,293]],[1209, 113,[2,11,13,15,17,20,54,57,105,111,117,251,260,284]],[1455, 106,[5,15,17,19,21,27,41]],[1411, 106,[2,11,13,15,17,20,192]],[1239, 110,[2,11,13,15,17,20,74,166,169,204,249]],[1499, 106,[2,11,13,15,17,20,73]],[1161, 111,[2,11,13,15,17,20,98,104,427,431,479,524]],[1351, 106,[2,11,13,15,17,20,49]],[1317, 108,[2,11,13,15,17,20,156,1434,1439]],[1417, 110,[2,11,13,15,17,20,74,139,149,255,284]],[893, 111,[2,11,13,15,17,20,38,232,302,366,404,456]],[1333, 108,[2,11,13,15,17,20,76,401,405]],[1423, 110,[2,11,13,15,17,20,153,479,489,928,957]],[1449, 106,[2,11,13,15,17,20,33]],[1141, 108,[2,11,13,15,17,20,90,186,453]],[1463, 106,[2,11,13,15,17,20,40]],[1387, 115,[2,11,13,15,17,20,49,135,142,150,160,181,659,693,725,751]],[1277, 111,[2,11,13,15,17,20,70,73,427,431,552,570]],[1201, 106,[2,11,13,15,17,20,64]],[1459, 106,[5,15,17,19,21,27,41]],[1503, 110,[2,11,13,15,17,20,83,85,132,161,245]],[1385, 106,[2,11,13,15,17,20,79]],[1085, 106,[2,11,13,15,17,20,291]],[1526, 1,[68]],[1051, 106,[2,11,13,15,17,20,351]],[1491, 106,[2,11,13,15,17,20,53]],[1195, 106,[2,11,13,15,17,20,53]],[1247, 109,[2,11,13,15,17,20,81,866,870,2159]],[1363, 110,[2,11,13,15,17,20,88,147,151,187,191]],[1353, 106,[2,11,13,15,17,20,49]],[1367, 109,[2,11,13,15,17,20,203,370,374,2069]],[1307, 110,[2,11,13,15,17,20,195,464,468,1544,6097]],[1477, 106,[2,11,13,15,17,20,36]],[1265, 106,[2,11,13,15,17,20,69]],[1457, 108,[5,15,17,19,21,27,45,118,122]],[1163, 106,[2,11,13,15,17,20,37]],[1401, 106,[2,11,13,15,17,20,37]],[1189, 106,[2,11,13,15,17,20,66]],[1259, 108,[2,11,13,15,17,20,63,203,247]],[1483, 112,[2,11,13,15,17,20,74,617,620,626,633,1261,1273]],[925, 114,[2,11,13,15,17,20,40,1106,1124,2798,2849,3018,3056,3097,3149]],[1465, 106,[2,11,13,15,17,20,39]],[1143, 111,[2,11,13,15,17,20,74,173,181,185,261,296]],[1287, 107,[2,11,13,15,17,20,52,93]],[1269, 108,[2,11,13,15,17,20,163,346,801]],[1249, 108,[2,11,13,15,17,20,40,79,83]],[1295, 111,[2,11,13,15,17,20,42,45,121,125,291,295]],[1501, 106,[2,11,13,15,17,20,34]],[1165, 106,[2,11,13,15,17,20,37]],[1241, 106,[2,11,13,15,17,20,34]],[1467, 106,[2,11,13,15,17,20,54]],[1251, 106,[2,11,13,15,17,20,37]],[1473, 106,[2,11,13,15,17,20,59]],[1435, 106,[2,11,13,15,17,20,432]],[1469, 106,[2,11,13,15,17,20,54]],[1365, 108,[2,11,13,15,17,20,52,136,140]],[1087, 107,[2,11,13,15,17,20,103,105]],[1425, 108,[2,11,13,15,17,20,54,241,518]],[1493, 106,[2,11,13,15,17,20,70]],[1419, 106,[2,11,13,15,17,20,72]],[1437, 106,[2,11,13,15,17,20,49]],[1243, 106,[2,11,13,15,17,20,82]],[1439, 116,[2,11,13,15,17,20,468,-1588,1594,1600,1608,1616,-2425,2437,2472,2497,2543]],[1245, 107,[2,11,13,15,17,20,66,69]],[1225, 106,[2,11,13,15,17,20,229]],[1451, 106,[2,11,13,15,17,20,100]],[1145, 111,[2,11,13,15,17,20,59,333,350,354,556,762]],[1427, 106,[2,11,13,15,17,20,42]],[1461, 108,[7,17,19,21,23,31,49,181,405]],[1337, 107,[2,11,13,15,17,20,367,3980]],[1197, 106,[2,11,13,15,17,20,55]],[1511, 119,[2,11,13,15,17,20,127,428,433,438,449,456,463,466,1103,1122,1144,1171,1204,1234]],[1453, 106,[5,15,17,19,21,27,45]],[1505, 109,[2,11,13,15,17,20,74,267,288,711]],[1441, 106,[2,11,13,15,17,20,135]],[1521, 1,[238]],[1413, 106,[2,11,13,15,17,20,109]],[1429, 107,[2,11,13,15,17,20,50,52]],[1253, 110,[2,11,13,15,17,20,88,143,147,183,187]],[1227, 107,[2,11,13,15,17,20,61,232]],[1822, 1,[61]],[1319, 108,[2,11,13,15,17,20,155,348,352]],[813, 115,[2,11,13,15,17,20,194,5337,5355,7001,7277,7340,7349,7387,7428,7480]],[1495, 107,[2,11,13,15,17,20,104,360]],[1389, 106,[2,11,13,15,17,20,70]],[1377, 110,[2,11,13,15,17,20,79,362,366,370,3286]],[1157, 106,[2,11,13,15,17,20,72]],[1513, 106,[2,11,13,15,17,20,53]],[1564, 21,[245,454,463,472,476,485,494,1255,1260,1290,1294,1299,1304,1308,1569,1685,1729,1792,1914,-2069,2292]],[1507, 107,[2,11,13,15,17,20,81,318]],[1826, 16,[25,166,281,326,427,1058,1072,1120,1160,1176,1241,1261,1270,1278,1450,1625]],[1497, 107,[2,11,13,15,17,20,58,104]],[1421, 106,[2,11,13,15,17,20,62]],[1391, 106,[2,11,13,15,17,20,33]],[1229, 107,[2,11,13,15,17,20,178,607]],[1509, 107,[2,11,13,15,17,20,58,105]],[1393, 106,[2,11,13,15,17,20,36]],[1828, 10,[28,36,100,145,152,159,166,173,220,229]],[1524, 1,[68]],[1565, 4,[149,216,253,590]],[1515, 107,[2,11,13,15,17,20,72,324]],[1517, 107,[2,11,13,15,17,20,55,107]],[1824, 2,[80,528]],[1986, 1,[82]],[1825, 5,[23,133,191,200,208]],[1987, 1,[177]],[1829, 20,[50,78,86,208,287,396,484,523,644,739,745,751,797,810,818,827,836,845,851,866]],[1741, 1,[137]],[1584, 2,[760,1886]],[1955, 1,[145]],[1321, 106,[2,11,13,15,17,20,149]],[1981, 1,[359]],[1379, 110,[2,11,13,15,17,20,84,266,271,286,1153]],[1830, 1,[173]],[1759, 1,[1517]],[1381, 107,[2,11,13,15,17,20,39,65]],[2006, 1,[78]],[1571, 7,[3674,12658,12667,12676,12685,12703,12719]],[2029, 2,[100,109]],[2146, 1,[187]],[2170, 2,[167,190]],[1794, 1,[132]],[1990, 1,[144]],[2014, 2,[38,47]],[2202, 5,[11,13,15,17,31]],[2143, 1,[130]],[2218, 5,[11,13,15,17,29]],[2061, 1,[100]],[2204, 5,[11,13,15,17,31]],[2015, 14,[50,75,83,91,117,126,134,159,219,226,233,242,265,274]],[2076, 2,[1016,1161]],[2220, 5,[11,13,15,17,32]],[2206, 5,[11,13,15,17,59]],[1841, 1,[3947]],[2222, 5,[11,13,15,17,71]],[2208, 5,[11,13,15,17,31]],[2198, 5,[11,13,15,17,28]],[2224, 5,[11,13,15,17,32]],[2018, 3,[28,49,57]],[2210, 5,[11,13,15,17,33]],[2200, 5,[11,13,15,17,31]],[2159, 1,[195]],[2226, 5,[11,13,15,17,25]],[2292, 1,[130]],[2102, 1,[242]],[2212, 5,[11,13,15,17,31]],[2228, 5,[11,13,15,17,27]],[2025, 19,[177,210,219,264,300,330,372,380,491,533,553,559,590,633,676,706,712,734,761]],[2150, 1,[370]],[2214, 5,[11,13,15,17,29]],[2394, 1,[133]],[2216, 5,[11,13,15,17,31]],[2450, 107,[3,11,13,15,17,21,75,96]],[2466, 106,[3,11,13,15,17,21,27]],[2483, 107,[3,11,13,15,17,21,45,47]],[2404, 1,[113]],[2499, 106,[3,11,13,15,17,21,41]],[2452, 106,[3,11,13,15,17,21,85]],[2523, 106,[3,11,13,15,17,21,84]],[2468, 106,[3,11,13,15,17,21,69]],[2539, 107,[3,11,13,15,17,21,26,64]],[2563, 107,[3,11,13,15,17,21,27,44]],[2507, 106,[3,11,13,15,17,21,53]],[2395, 1,[187]],[2547, 107,[3,11,13,15,17,21,110,132]],[2501, 106,[3,11,13,15,17,21,48]],[2485, 107,[3,11,13,15,17,21,81,95]],[2469, 106,[2,10,12,14,16,19,21]],[2231, 2,[148,171]],[2509, 107,[3,11,13,15,17,21,27,29]],[2565, 106,[3,11,13,15,17,21,72]],[2503, 107,[3,11,13,15,17,21,53,55]],[2179, 1,[151]],[2471, 106,[3,11,13,15,17,21,27]],[2454, 106,[3,11,13,15,17,21,95]],[2271, 2,[723,955]],[2511, 106,[3,11,13,15,17,21,37]],[2541, 107,[3,11,13,15,17,21,36,52]],[2587, 107,[3,11,13,15,17,21,37,74]],[2487, 106,[3,11,13,15,17,21,210]],[2579, 107,[3,11,13,15,17,21,130,147]],[2525, 106,[3,11,13,15,17,21,104]],[2567, 107,[3,11,13,15,17,21,27,43]],[2405, 1,[188]],[2456, 106,[3,11,13,15,17,21,36]],[2473, 106,[3,11,13,15,17,21,30]],[2549, 108,[3,11,13,15,17,21,149,163,530]],[2513, 106,[3,11,13,15,17,21,37]],[2595, 106,[3,11,13,15,17,21,76]],[2505, 106,[3,11,13,15,17,21,75]],[2543, 106,[3,11,13,15,17,21,66]],[2527, 106,[3,11,13,15,17,21,58]],[2589, 107,[3,11,13,15,17,21,251,266]],[2569, 107,[3,11,13,15,17,21,26,41]],[2489, 106,[3,11,13,15,17,21,27]],[2581, 106,[3,11,13,15,17,21,88]],[2475, 106,[3,11,13,15,17,21,51]],[2458, 106,[3,11,13,15,17,21,34]],[2108, 1,[80]],[2551, 107,[3,11,13,15,17,21,26,43]],[2273, 1,[56]],[2515, 106,[3,11,13,15,17,21,55]],[2627, 106,[3,11,13,15,17,21,95]],[2643, 106,[3,11,13,15,17,21,54]],[2659, 107,[3,11,13,15,17,21,30,32]],[2491, 106,[3,11,13,15,17,21,66]],[2591, 106,[3,11,13,15,17,21,26]],[2675, 106,[3,11,13,15,17,21,26]],[2583, 107,[3,11,13,15,17,21,26,63]],[2477, 107,[3,11,13,15,17,21,30,32]],[2553, 107,[3,11,13,15,17,21,31,74]],[2611, 107,[3,11,13,15,17,21,48,66]],[2597, 106,[3,11,13,15,17,21,66]],[2460, 106,[3,11,13,15,17,21,29]],[2517, 106,[3,11,13,15,17,21,54]],[2629, 107,[3,11,13,15,17,21,81,178]],[2545, 107,[3,11,13,15,17,21,139,178]],[2645, 107,[3,11,13,15,17,21,30,32]],[2593, 107,[3,11,13,15,17,21,26,43]],[2661, 106,[3,11,13,15,17,21,48]],[2683, 106,[3,11,13,15,17,21,133]],[2715, 106,[3,11,13,15,17,21,23]],[2479, 107,[3,11,13,15,17,21,27,29]],[2599, 107,[3,11,13,15,17,21,47,90]],[2462, 106,[3,11,13,15,17,21,41]],[2555, 107,[3,11,13,15,17,21,27,43]],[2613, 107,[3,11,13,15,17,21,26,43]],[2631, 106,[3,11,13,15,17,21,75]],[2493, 106,[3,11,13,15,17,21,92]],[2699, 106,[3,11,13,15,17,21,310]],[2731, 106,[3,11,13,15,17,21,42]],[2685, 106,[3,11,13,15,17,21,48]],[2663, 106,[3,11,13,15,17,21,27]],[2755, 106,[3,11,13,15,17,21,63]],[2481, 107,[3,11,13,15,17,21,27,29]],[2464, 107,[3,11,13,15,17,21,32,34]],[2601, 107,[3,11,13,15,17,21,26,43]],[2111, 1,[80]],[2633, 106,[3,11,13,15,17,21,61]],[2615, 107,[3,11,13,15,17,21,26,43]],[2557, 107,[3,11,13,15,17,21,33,53]],[2733, 106,[3,11,13,15,17,21,61]],[2739, 106,[3,11,13,15,17,21,67]],[2687, 107,[3,11,13,15,17,21,45,47]],[2495, 106,[3,11,13,15,17,21,31]],[2757, 107,[3,11,13,15,17,21,27,29]],[2717, 106,[3,11,13,15,17,21,95]],[2519, 106,[3,11,13,15,17,21,40]],[2771, 106,[3,11,13,15,17,21,71]],[2787, 106,[3,11,13,15,17,21,71]],[2603, 107,[3,11,13,15,17,21,26,41]],[2665, 107,[3,11,13,15,17,21,58,60]],[2635, 106,[3,11,13,15,17,21,54]],[2677, 106,[3,11,13,15,17,21,113]],[2647, 106,[3,11,13,15,17,21,62]],[2701, 106,[3,11,13,15,17,21,189]],[2585, 106,[3,11,13,15,17,21,109]],[2735, 107,[3,11,13,15,17,21,27,29]],[2803, 106,[3,11,13,15,17,21,38]],[2819, 106,[3,11,13,15,17,21,27]],[2689, 106,[3,11,13,15,17,21,26]],[2759, 106,[3,11,13,15,17,21,27]],[2559, 107,[3,11,13,15,17,21,27,76]],[2741, 106,[3,11,13,15,17,21,137]],[2773, 106,[3,11,13,15,17,21,45]],[2617, 106,[3,11,13,15,17,21,110]],[2789, 106,[3,11,13,15,17,21,45]],[2497, 106,[3,11,13,15,17,21,46]],[2521, 106,[3,11,13,15,17,21,98]],[2529, 106,[3,11,13,15,17,21,69]],[2667, 106,[3,11,13,15,17,21,312]],[2679, 106,[3,11,13,15,17,21,27]],[2719, 106,[3,11,13,15,17,21,68]],[2649, 106,[3,11,13,15,17,21,60]],[2637, 106,[3,11,13,15,17,21,57]],[2827, 107,[3,11,13,15,17,21,59,61]],[2737, 106,[3,11,13,15,17,21,72]],[2805, 106,[3,11,13,15,17,21,79]],[2113, 1,[70]],[2821, 106,[3,11,13,15,17,21,90]],[2703, 106,[3,11,13,15,17,21,34]],[2775, 106,[3,11,13,15,17,21,58]],[2561, 107,[3,11,13,15,17,21,26,43]],[2691, 106,[3,11,13,15,17,21,189]],[2605, 107,[3,11,13,15,17,21,88,104]],[2743, 106,[3,11,13,15,17,21,42]],[2619, 106,[3,11,13,15,17,21,78]],[2843, 106,[3,11,13,15,17,21,241]],[2761, 106,[3,11,13,15,17,21,51]],[2859, 106,[3,11,13,15,17,21,285]],[2721, 107,[3,11,13,15,17,21,27,29]],[2651, 106,[3,11,13,15,17,21,53]],[2669, 106,[3,11,13,15,17,21,27]],[2829, 106,[3,11,13,15,17,21,89]],[2807, 106,[3,11,13,15,17,21,58]],[2891, 106,[3,11,13,15,17,21,27]],[2875, 107,[3,11,13,15,17,21,80,82]],[2823, 107,[3,11,13,15,17,21,86,88]],[2907, 106,[3,11,13,15,17,21,27]],[2923, 107,[3,11,13,15,17,21,119,121]],[2777, 107,[3,11,13,15,17,21,71,73]],[2693, 107,[3,11,13,15,17,21,60,63]],[2607, 107,[3,11,13,15,17,21,31,74]],[2745, 106,[3,11,13,15,17,21,45]],[2931, 106,[3,11,13,15,17,21,103]],[2621, 106,[3,11,13,15,17,21,73]],[2845, 106,[3,11,13,15,17,21,125]],[2653, 106,[3,11,13,15,17,21,37]],[2861, 106,[3,11,13,15,17,21,80]],[2671, 107,[3,11,13,15,17,21,43,46]],[2933, 106,[3,11,13,15,17,21,46]],[2723, 106,[3,11,13,15,17,21,75]],[2877, 106,[3,11,13,15,17,21,71]],[2825, 107,[3,11,13,15,17,21,145,147]],[2809, 107,[3,11,13,15,17,21,72,74]],[2831, 106,[3,11,13,15,17,21,305]],[2779, 106,[3,11,13,15,17,21,72]],[2909, 107,[3,11,13,15,17,21,167,169]],[2695, 107,[3,11,13,15,17,21,33,36]],[2847, 106,[3,11,13,15,17,21,62]],[2863, 107,[3,11,13,15,17,21,133,135]],[2609, 107,[3,11,13,15,17,21,87,103]],[2935, 106,[3,11,13,15,17,21,133]],[2655, 106,[3,11,13,15,17,21,56]],[2673, 107,[3,11,13,15,17,21,27,29]],[2623, 106,[3,11,13,15,17,21,101]],[2791, 107,[3,11,13,15,17,21,281,283]],[2531, 107,[3,11,13,15,17,21,57,71]],[2763, 106,[3,11,13,15,17,21,48]],[2811, 106,[3,11,13,15,17,21,115]],[2879, 106,[3,11,13,15,17,21,57]],[2681, 106,[3,11,13,15,17,21,91]],[2911, 106,[3,11,13,15,17,21,64]],[2705, 106,[3,11,13,15,17,21,62]],[2639, 106,[3,11,13,15,17,21,60]],[2893, 106,[3,11,13,15,17,21,269]],[2781, 107,[3,11,13,15,17,21,65,67]],[2747, 106,[3,11,13,15,17,21,30]],[2833, 106,[3,11,13,15,17,21,371]],[2937, 106,[3,11,13,15,17,21,76]],[2865, 107,[3,11,13,15,17,21,272,274]],[2697, 106,[3,11,13,15,17,21,32]],[2947, 106,[3,11,13,15,17,21,33]],[2725, 106,[3,11,13,15,17,21,49]],[2979, 107,[3,11,13,15,17,21,84,86]],[2849, 106,[3,11,13,15,17,21,54]],[2625, 106,[3,11,13,15,17,21,67]],[2533, 106,[3,11,13,15,17,21,56]],[2657, 106,[3,11,13,15,17,21,55]],[2793, 106,[3,11,13,15,17,21,200]],[2963, 106,[3,11,13,15,17,21,33]],[2881, 106,[3,11,13,15,17,21,47]],[2813, 106,[3,11,13,15,17,21,82]],[2995, 107,[3,11,13,15,17,21,55,57]],[2925, 106,[3,11,13,15,17,21,232]],[2641, 107,[3,11,13,15,17,21,74,76]],[2707, 106,[3,11,13,15,17,21,62]],[2913, 106,[3,11,13,15,17,21,60]],[2783, 106,[3,11,13,15,17,21,37]],[2749, 106,[3,11,13,15,17,21,26]],[2765, 106,[3,11,13,15,17,21,57]],[2835, 106,[3,11,13,15,17,21,54]],[2895, 106,[3,11,13,15,17,21,216]],[2867, 106,[3,11,13,15,17,21,98]],[2571, 107,[3,11,13,15,17,21,185,233]],[2981, 106,[3,11,13,15,17,21,72]],[2727, 106,[3,11,13,15,17,21,131]],[2851, 107,[3,11,13,15,17,21,77,79]],[2444, 1,[190]],[2795, 106,[3,11,13,15,17,21,170]],[2949, 106,[3,11,13,15,17,21,33]],[2815, 106,[3,11,13,15,17,21,37]],[2939, 106,[3,11,13,15,17,21,204]],[2883, 106,[3,11,13,15,17,21,45]],[2997, 106,[3,11,13,15,17,21,27]],[1309, 106,[2,11,13,15,17,20,41]],[2785, 106,[3,11,13,15,17,21,54]],[2915, 107,[3,11,13,15,17,21,123,125]],[2751, 106,[3,11,13,15,17,21,51]],[2927, 106,[3,11,13,15,17,21,75]],[2767, 107,[3,11,13,15,17,21,26,28]],[2837, 106,[3,11,13,15,17,21,66]],[2709, 107,[3,11,13,15,17,21,78,80]],[2535, 106,[3,11,13,15,17,21,101]],[2965, 106,[3,11,13,15,17,21,36]],[2869, 106,[3,11,13,15,17,21,66]],[2897, 107,[3,11,13,15,17,21,98,100]],[2853, 106,[3,11,13,15,17,21,71]],[2573, 107,[3,11,13,15,17,21,69,105]],[2729, 106,[3,11,13,15,17,21,52]],[2817, 106,[3,11,13,15,17,21,27]],[2983, 107,[3,11,13,15,17,21,104,483]],[2941, 106,[3,11,13,15,17,21,32]],[2999, 106,[3,11,13,15,17,21,64]],[1485, 107,[2,11,13,15,17,20,37,84]],[2929, 106,[3,11,13,15,17,21,51]],[2753, 106,[3,11,13,15,17,21,48]],[2917, 106,[3,11,13,15,17,21,27]],[2769, 106,[3,11,13,15,17,21,26]],[2537, 107,[3,11,13,15,17,21,68,101]],[2871, 106,[3,11,13,15,17,21,189]],[2899, 106,[3,11,13,15,17,21,27]],[2855, 106,[3,11,13,15,17,21,45]],[2575, 107,[3,11,13,15,17,21,26,42]],[2943, 106,[3,11,13,15,17,21,57]],[2873, 106,[3,11,13,15,17,21,64]],[2445, 105,[1,9,11,13,15,17]],[2901, 106,[3,11,13,15,17,21,57]],[1261, 106,[2,11,13,15,17,20,162]],[1479, 107,[2,11,13,15,17,20,86,152]],[2797, 106,[3,11,13,15,17,21,198]],[1487, 107,[2,11,13,15,17,20,108,737]],[1289, 107,[2,11,13,15,17,20,73,76]],[2945, 106,[3,11,13,15,17,21,65]],[2919, 106,[3,11,13,15,17,21,91]],[2711, 106,[3,11,13,15,17,21,122]],[1369, 108,[2,11,13,15,17,20,120,158,162]],[2839, 106,[3,11,13,15,17,21,339]],[2903, 106,[3,11,13,15,17,21,26]],[2885, 107,[3,11,13,15,17,21,177,179]],[2448, 106,[3,11,13,15,17,21,56]],[1481, 106,[2,11,13,15,17,20,41]],[2799, 107,[3,11,13,15,17,21,142,144]],[2921, 106,[3,11,13,15,17,21,51]],[2887, 106,[3,11,13,15,17,21,93]],[2841, 106,[3,11,13,15,17,21,121]],[2905, 106,[3,11,13,15,17,21,57]],[2801, 107,[3,11,13,15,17,21,113,115]],[2985, 107,[3,11,13,15,17,21,152,1326]],[2713, 106,[3,11,13,15,17,21,53]],[2577, 107,[3,11,13,15,17,21,142,158]],[2889, 106,[3,11,13,15,17,21,90]],[2951, 106,[3,11,13,15,17,21,32]],[2967, 106,[3,11,13,15,17,21,36]],[1297, 108,[2,11,13,15,17,20,96,515,519]],[1592, 2,[126,135]],[2857, 106,[3,11,13,15,17,21,135]],[1489, 106,[2,11,13,15,17,20,63]],[1371, 109,[2,11,13,15,17,20,82,110,253,689]],[2987, 106,[3,11,13,15,17,21,115]],[1311, 106,[2,11,13,15,17,20,52]],[2953, 106,[3,11,13,15,17,21,32]],[2969, 106,[3,11,13,15,17,21,33]],[2989, 106,[3,11,13,15,17,21,120]],[1313, 108,[2,11,13,15,17,20,35,116,180]],[1373, 107,[2,11,13,15,17,20,61,343]],[2991, 106,[3,11,13,15,17,21,32]],[2971, 106,[3,11,13,15,17,21,33]],[2973, 107,[3,11,13,15,17,21,30,119]],[2955, 106,[3,11,13,15,17,21,36]],[2993, 106,[3,11,13,15,17,21,30]],[2975, 106,[3,11,13,15,17,21,50]],[2977, 106,[3,11,13,15,17,21,27]],[2957, 106,[3,11,13,15,17,21,36]],[2959, 106,[3,11,13,15,17,21,41]],[2961, 106,[3,11,13,15,17,21,33]],[3093, 2,[146,648]],[3102, 1,[-278]]],
"—Class": [[70, 1,[26]]],
"CLASS": [[316, 1,[95]],[392, 2,[112,2755]],[1526, 3,[153,165,186]],[1532, 1,[58]],[1766, 2,[64,144]],[1767, 1,[66]],[1774, 1,[57]],[1790, 1,[60]],[1782, 9,[50,89,181,245,317,369,408,439,470]],[1768, 1,[60]],[1522, 1,[331]],[1783, 9,[54,110,178,234,292,352,414,471,527]],[1769, 6,[66,123,130,256,309,316]],[1770, 5,[82,156,330,479,549]],[1524, 1,[156]],[1778, 4,[53,681,783,824]],[1773, 3,[146,253,377]],[1779, 6,[113,627,705,725,886,1023]],[1780, 1,[1375]],[1785, 3,[75,216,374]],[1786, 1,[57]],[1781, 1,[61]],[1950, 1,[245]],[1525, 1,[126]],[2034, 1,[267]],[1952, 1,[58]],[1787, 13,[76,181,538,730,911,960,973,1005,1018,1173,1303,1418,1576]],[2082, 1,[61]],[1791, 10,[246,335,606,769,857,1117,1151,3810,3911,4006]],[1759, 26,[1163,1232,1513,1607,1691,1746,1966,2055,2620,2713,2851,3099,3564,3700,4127,4540,4725,4847,5846,6174,6236,7922,8114,8131,8194,9658]],[2091, 1,[61]],[1788, 9,[101,390,436,706,945,1078,1422,1805,2221]],[2084, 1,[60]],[1789, 1,[51]],[2130, 1,[62]],[2087, 1,[61]],[2131, 1,[40]],[2124, 6,[112,177,240,305,490,636]],[2089, 1,[60]],[1761, 1,[767]],[2125, 3,[23,215,427]],[2132, 1,[120]],[2069, 1,[90]],[2093, 1,[61]],[1762, 1,[60]],[2126, 1,[186]],[2070, 1,[121]],[2127, 1,[25]],[2078, 1,[61]],[2134, 3,[50,99,183]],[2071, 3,[100,112,133]],[1763, 5,[462,552,883,974,2900]],[2135, 1,[99]],[2129, 1,[24]],[2080, 1,[60]],[1764, 1,[54]],[2136, 1,[126]],[1800, 22,[797,2837,2946,3028,3644,4175,5143,5350,6239,8454,9073,9149,9297,9701,11091,11282,11536,11679,11784,11841,11898,12466]],[1801, 1,[82]],[1802, 1,[52]],[1803, 1,[51]],[1804, 1,[55]],[1805, 2,[50,579]],[1806, 2,[3643,3734]],[1807, 1,[480]],[1808, 1,[57]],[1541, 1,[226]],[1809, 5,[256,708,871,1529,2145]],[1542, 1,[225]],[1543, 1,[222]],[1813, 7,[2319,2392,2550,2680,2700,2728,2881]],[1814, 5,[82,389,597,632,709]],[1815, 15,[123,268,287,346,619,704,1161,2488,4101,5471,5532,5764,6142,6595,7052]],[1816, 18,[149,231,366,657,714,780,1326,1661,1728,1840,2056,2255,2432,2604,2686,2800,2891,3332]],[1817, 4,[118,183,275,1054]],[1818, 3,[90,217,278]],[1819, 4,[562,1001,1219,2217]],[1820, 4,[92,208,279,435]],[3103, 2,[330,1398]]],
"class:": [[16, 49,[1]],[15, 98,[1,1]],[25, 1,[2930]],[29, 1,[2125]],[209, 1,[301]],[192, 1,[476]],[278, 3,[2298,2408,-2431]],[294, 1,[1084]],[436, 1,[-58]],[987, 1,[-336]],[1563, 1,[49]],[1599, 1,[49]]],
"Class:": [[1594, 1,[182]],[1962, 3,[52,132,247]],[1963, 1,[46]],[1964, 1,[46]],[1794, 1,[19]],[1796, 1,[19]],[2048, 1,[46]],[1798, 2,[152,367]],[1961, 1,[259]]],
"CLASS:": [[326, 1,[3098]],[1827, 1,[286]],[1825, 1,[293]],[2082, 1,[55]],[2091, 1,[55]],[2084, 1,[54]],[2087, 1,[55]],[2089, 1,[54]],[2093, 1,[55]],[2078, 1,[55]],[2080, 1,[54]],[1309, 1,[44]]],
"classChanged": [[412, 1,[125]]],
